function [y1] = myNeuralNetworkFunction(x1)
%MYNEURALNETWORKFUNCTION neural network simulation function.
%
% Auto-generated by MATLAB, 25-Mar-2019 11:39:02.
%
% [y1] = myNeuralNetworkFunction(x1) takes these arguments:
%   x = Qx64 matrix, input #1
% and returns:
%   y = Qx2 matrix, output #1
% where Q is the number of samples.

%#ok<*RPMT0>

% ===== NEURAL NETWORK CONSTANTS =====

% Input 1
x1_step1.xoffset = [1.8720065712782;1.94948422081564;1.63780999932788;1.49491274360214;1.39588744353227;1.29288775489458;1.16614158498804;1.11861069922359;1.02152627947103;0.877518556570128;0.852683085329539;0.770730169114378;0.777066182148159;0.706383548656213;0.711771335609062;1.11921036099907;1.16911156082745;1.15663818465367;1.08649718013575;1.00459760528176;0.970891145374087;0.886521682556841;0.782134356145996;0.759783426287468;0.778349058106344;0.744967634903822;0.726819628901873;0.611556357685497;0.57342159667984;0.531250640593548;0.474314594910534;0.456081690288015;0.410754498488366;0.365989460053936;0.382164132853388;0.382645035538406;0.329052123906942;0.327518021346552;0.30227028781574;0.298741185105476;0.271236787559296;0.266715011627105;0.271069866601834;0.244926103590372;0.243345320675491;0.243366117422205;0.230096450741557;0.225281173327655;0.235482329497082;0.229968162328023;0.230524288330606;0.201093385472855;0.194396259546493;0.198255305057135;0.207652018594516;0.191554525807319;0.184223210760023;0.176937210505571;0.161921401227874;0.15171311002097;0.121965736162033;0.0936417904803226;0.0618550533798934;0.039442570468566];
x1_step1.gain = [0.00873082694710334;0.00852105687370117;0.0098453241732765;0.00597606861179809;0.00591267591421965;0.00623630862055671;0.0100922998730923;0.0202245478182645;0.027314023752125;0.0277351052452041;0.026911407115939;0.0355411679917177;0.0420238528193228;0.0416944849555271;0.0454705397156296;0.0477138003641914;0.0500377626350449;0.0465673950664036;0.051386575728045;0.0437838828945612;0.0167324267379529;0.0129877734758805;0.0305690112639027;0.0268395773853592;0.014564509797051;0.0201283154790249;0.0185656985141075;0.0167114014705776;0.0176722430135022;0.0100591207729431;0.0212811647965617;0.0215245865514545;0.0141850457220066;0.0167467060235345;0.0153386545410764;0.0162652201619438;0.0123524709765911;0.0190373158136041;0.013888636650713;0.0226532104156549;0.0251540687849503;0.0228656333356773;0.0216826629861747;0.0106089020924112;0.0107695413856583;0.0298665273818811;0.0318510691179776;0.0199230316245834;0.0158233316406087;0.0201146550484226;0.0185601647219503;0.0151255001422947;0.0199585694036345;0.026095303753164;0.0209119202545732;0.0150881967461193;0.0241008350760808;0.0422285060814729;0.0510616467720477;0.0678967586433792;0.0687085417147752;0.0951827275130692;0.158224132223697;0.187781303522846];
x1_step1.ymin = -1;

% Layer 1
b1 = [-1.4983919968363526021;-1.466751266922122543;1.417985751110191428;1.4027073791845050543;1.562289463331467676;-1.3923117482281093249;-1.2348259921888049551;-1.1423357077758120592;-1.1518461334590488487;-1.2060874599253545991;1.1270897815701323985;1.1111675290778566527;1.0132629135147199761;-1.0171866049195270598;-0.93698774623835512365;-0.9259136107278359562;0.89631575219790593501;0.85389321578225230169;-0.82565787685250069394;0.76451550960092129472;-0.78092843641911746655;-0.680002435909778713;0.66620879372090180404;0.62969280691671114525;-0.55175620244262124636;0.41222395069427258951;0.45176532935752827802;0.56874589943609799025;-0.43395688536209864328;0.47736588826992687462;0.35409441447295464389;-0.54464135237218802565;0.32435394528340733;-0.21821637291849504958;0.22787656970020142566;-0.037156214850533997307;-0.10135355572893092746;-0.069357443533080639919;-0.0024431053682187906309;0.029595436564509233768;-0.010244607601296772115;-0.14019959009297894292;-0.010831847776240969422;0.13348748116545544606;0.23363012678328320959;0.15381178004770665324;0.21371982237139891536;0.4460279535994332023;0.34119532334683788655;-0.41214041870450596194;0.49350565989686373536;-0.43658134027135042654;-0.47593391563395803789;0.472370273057741763;-0.56572364876607073025;-0.62426393895804566103;-0.77765540568373281438;-0.69115429185286381131;-0.72945057320483719376;-0.68603564267094852003;-0.73098802231896720105;-0.9590674347819958534;-0.86774595892477379699;-0.89411645151860064118;0.94160541093281568958;-1.0078703235760293477;1.1044636288000559965;1.0216546523800928981;-1.0776396810030761664;-1.2107970843642033021;1.2037344859695600086;1.128469289742963122;-1.2138053216150095359;1.2720050392730755107;-1.3167251863033999637;1.3235037589100266953;1.462074397658692515;-1.4294974656578545158;1.4308415522046127322;-1.5019284044508371956];
IW1_1 = [0.13463583293045275346 -0.35072043354863674525 -0.11553990050613101304 0.034301848898401307575 -0.0040390234365969886893 0.051283684636736749651 0.13358530961142173199 0.29226393275592560395 0.25298147450119917723 -0.12853247400805684064 0.24264217528249759637 0.033260082400833695937 0.25338850903419785077 0.28167518886047315796 -0.34546520928064117228 -0.28890069747895319452 -0.11082276163797236124 0.063728605447955791186 -0.26528567918760331823 -0.2424537088553811448 0.087949351659161914552 0.23070997712988386419 0.11701554635307238883 0.057649556721407577142 0.30047865003468188227 0.07202980198384928423 -0.060283592838246899404 0.27595431642581169651 0.1688726850627022269 0.12619691453485742949 -0.043560008266446632874 -0.27791086524060243379 0.23944264875455856245 0.038450907988044756569 -0.085302534569836371836 0.083414243057992540353 0.18557030171565205845 0.17415325431746336848 0.054315365242176144589 -0.16765822010993486346 -0.036378965800855977974 -0.34005888969132291866 0.27332214696463413839 -0.10392035399728451195 0.20414882762443001263 -0.060289188970215290553 -0.24095385011215256221 -0.16048617575251239442 -0.10727088393625205942 0.021040635320191802132 0.25256631129995399387 -0.082173216646561977883 0.22265347318901224094 0.042327007200003922971 0.28071773229768498537 0.080476722819948040555 -0.12344354241425360696 0.037511612139818850675 0.34186651985508914597 -0.013253626187665786679 0.07666138074190098628 0.13912753991830648093 -0.024877144578908275824 0.31090839385756513513;0.16168425132975350333 0.14293146506494786019 0.17206173374485800309 0.16624161526902758723 -0.0028359157608113627451 -0.077148692531759544 -0.22989819952477594245 -0.27827010763416659689 0.092061990734863957675 0.1385865910234556353 0.12552428329377302019 -0.038021065716703730808 0.11229664687016190083 -0.23427543424354929646 0.34565429966409239038 -0.13247786373174083585 0.17862161657537076187 -0.31842179223323219261 -0.17072806927674336053 0.0057812182772326390495 0.16554842864173080486 0.078705026296150074061 0.0060486558027992203337 0.03038316057461091374 -0.16011867279047281576 -0.21671626653889872194 -0.1226050221106806809 0.18218628016576998707 -0.30314266927726196688 0.16693040502347850085 0.27490682240117991775 -0.079260733058115193095 0.29492662495801347244 -0.089773116720414922187 0.2404450098792133006 0.087599397555563993101 0.29185040782781807023 0.35064786777010498175 -0.10308978140819043123 0.078377678184689075769 -0.17314276168679348933 0.14892331670167727187 -0.11875706621303799837 -0.2639128523858366715 -0.019584017088606620743 -0.11167245583582402491 0.25882347494142066147 -0.00026256839942907051833 0.10021918545320068761 -0.087315816273176888318 -0.015028530535691994249 -0.23649398940242077893 -0.28616544609284638723 0.11066790848904764499 0.26312154495186529379 -0.066341678975259804618 -0.21201763369922912994 0.266238044872068369 0.10979812182851406144 -0.24216676172033729797 0.26942074941029731106 0.21152372873482516713 -0.29143173806965277928 -0.070231030899636254228;0.026032306417490713724 0.26122622243885268434 0.073608374022640671308 0.1073703594306413267 0.3363473463042706002 0.25003387648447100711 0.24566766559861433206 -0.043118454388620136575 -0.23664828534117832159 -0.045539932232007238055 0.078836468013039007197 0.11077472758457053426 -0.062908084595994326338 0.20648489946123810279 -0.25297251524183705929 -0.17907070201942704157 0.20426504982389898091 -0.14236566785552137726 0.13257582526902306208 0.20108910236139049266 0.31345928670702910557 0.14808864270526059248 0.23671436309424576105 0.29112464655899567001 -0.27809613580331582483 0.28861003661764744743 -0.11744647270458430377 -0.076067988359073773763 0.11950216053648680947 -0.084172228702441495574 -0.25672602949011630313 -0.19101167741925886845 -0.065699479039897978883 -0.065136500442124795063 -0.061606301827930962101 -0.14444720407138714191 -0.19426121787814704112 0.012080430924398782855 -0.24521058463383305082 -0.066712473881765807504 0.13945624467475931096 0.20264665398839395993 0.28689228486801388041 -0.10269606295139810381 0.18207262290110115543 -0.17859281486445410803 0.10135787821726988112 0.15809827580161053828 -0.13853300190595363439 0.21244186043097573746 -0.0013733084437816385579 0.20215258972593969089 -0.14726815221148248369 -0.32426771027336370734 -0.30520100103807379366 -0.1225991380257875768 -0.34251957092876622601 -0.15063305293863685219 0.18153856497619358379 -0.25885123586900737891 -0.12055754272154504958 0.21754673719275580135 -0.29807689936247527829 -0.22175410400148798384;-0.15796290356130959776 0.028809002102951355995 0.14427912192785657952 0.089799538598818118285 -0.086411710349334494574 -0.11457312311248540881 -0.034243560944980336314 0.10230146221915711879 -0.15914144070959701516 -0.31509568175008528801 0.29326720993959121131 -0.21112905047646834955 0.26753207573486781357 -0.15206443055524548891 0.25452954421127488294 0.21763724295300829192 0.099286230817367190915 -0.19022163002889849737 -0.10101691517646300966 -0.065420391717496320649 -0.083824704825964269084 0.15030660622757407996 -0.30817175935086466021 0.072310945619418739994 -0.13027217492284912104 0.09109863619206949592 -0.044855475357080808185 0.21877820993878749345 -0.31325760584468087533 0.25273542482281047272 0.2814129355423612977 -0.013039473000564292746 0.245842026636316352 -0.15128949039574884905 0.32149606797926877366 0.10967501974738365356 -0.24342560331175083777 0.050428834679516178208 0.074760670518981303667 -0.20522823519343333376 0.0087382669736757595524 -0.15338767850605988796 0.054853991332938854819 -0.056851502489416616548 -0.16990844478722230693 -0.082404220488029311653 -0.2851489999772010564 -0.03893535272706949435 -0.13076518411181373147 0.037686582676122279412 -0.20986186636773951353 -0.20497401740781737156 4.0798903306308047147e-05 0.26777664697550085382 -0.11581348341796857127 -0.31468703938256936681 -0.21918749797780812116 -0.30986584691498264554 -0.30544479668074225875 0.11318896776571328588 0.17316207230087629632 -0.32484129555613738827 0.08955568555407020237 0.22553537491718839147;-1.5131171479955005665 0.67994422850168212413 0.30790270153909315987 0.018891289977986960857 0.28989166463074106384 0.16042941829335985449 -0.013963179770265213633 -0.2934767707472682452 0.061576337739024260276 0.046618632581579576291 -0.064301720167188519683 -0.19574225818803039911 0.17378273026886753572 0.010996933415886844462 -0.18785077100260594296 0.10539174032708278905 -0.43204303193574183917 -0.27495044244328603611 0.028901924192332784092 0.049120675699054462682 0.2688689809416874299 0.048298667595767411087 0.50187656512707923273 0.20965444150733847373 0.20571134498688534165 0.096075133572811874383 0.11559572274804388869 -0.054384110757583654927 -0.3228821723543807698 0.16157666546450016876 -0.076888856658621232421 0.06075969072237769053 0.026655856303387289591 -0.02170683406150863623 0.086956328896933679506 0.094114665785664367026 0.24563640596648392278 -0.10755302843503745935 0.07360754810741490517 0.32752417829218133383 -0.061857245413280387281 0.25973472501223632269 -0.0012108692439408508604 0.13525253900558373288 -0.33375564514891070678 0.30660768342358668548 0.30760975408525537134 0.17336583355212076274 0.045516499230093585004 -0.18989580505489039863 0.31671133413978669324 -0.21505496647403171684 -0.097100774935932332443 0.25254274798177767103 0.12128615337874676383 0.11199496353098213619 0.16564703738486058482 0.050832633282597655677 -0.063061142369625830528 0.27536459458288720104 -0.067955641224708915327 0.19404556589298638247 -0.21318278196420514803 -0.22024175320680483559;0.43470806768143965826 -0.28126352510994206968 -0.11406773015468617272 -0.23699480494620372983 -0.28313937737349487156 -0.051282487063836978969 -0.087580968384588661624 -0.27478926891479532602 0.11205552907965195264 -0.26781811593611876132 -0.1997595422159202383 -0.26764285404387638811 -0.32290037590300751935 0.18657491755499527875 0.12569401964460213961 -0.15241508568151887482 -0.099240871046578429948 0.09547983574792483219 -0.21760316369936463787 -0.0070461333076515097334 -0.19117071813728209184 -0.13348021082105329671 -0.28117239910180469309 -0.30027264566552241964 -0.26145772160934815931 0.21880133962733377961 0.031788567013147361884 -0.1734157555282805907 0.067263226398456915645 -0.22668118837119791142 -0.17465292642064322859 0.26725405841203542234 -0.26435892078208639289 -0.10990711595662200351 0.1525283013550120248 0.14057485801233590705 0.090854544520567515065 0.090722912174309014444 0.23601724240345742234 0.18730889671849484945 0.10301769694898289809 0.28130909705810835941 -0.085823559596320320164 0.26876708955386530153 0.33558126091731060869 -0.16622354562438498848 -0.15931574889370608838 -0.046514526550098481139 -0.093627504363952174238 0.14010941619760261534 -0.18871243920257518845 0.27416623669936857066 0.27573588985086217029 0.12400785961985964778 -0.22539593320128947784 -0.21202256760469256891 0.161612933804619191 -0.17664660834599571482 -0.24529352894827322062 -0.22287060953357701321 -0.11213467024780869596 -0.042267655266725892571 0.00051161976647487190234 0.22938689104625734072;-0.15096252865112094743 -0.10696971358617689274 0.066278175368599187567 -0.14849003042200706326 -0.14240313698779324958 -0.26269164437159120418 -0.25901083456834012031 -0.3355064481307625246 0.018100237730169877609 0.13293614247615631596 -0.10615307038706933707 0.26431445324034386068 0.15131799317273478267 -0.29951766490725839631 0.072933282453096562326 0.11079578314061229449 -0.18320868698758877025 0.022094138270680296898 0.20680049773534042723 -0.13998653971131738705 0.12261628264898349894 -0.28223861668323507734 0.091884180312178362349 -0.20106751758115523621 -0.28695337325978637066 -0.11403696481366489002 0.31274933889747930094 -0.055554989782913129226 0.14613994463894436349 0.0013314680617187897322 -0.39525019149319745582 0.32848298306080991882 0.346536624906432833 0.28418771259207387114 0.14839300609812108855 0.11399353014763413672 0.2106927188843482901 0.034457512824108103844 -0.081965286404779916229 0.2115410057794397114 0.14433102301781355892 0.028294915094281697376 -0.0027324302666512289769 -0.30799217991915966985 -0.045743968153462370718 0.06506842076947036424 0.017650542763372623761 0.17568386688116810479 -0.27440629818720718713 -0.32778443164187703873 -0.17336715661656290632 0.37201430990514255948 -0.069812436525020865608 -0.23612791223524973172 -0.25869763911589005456 -0.053009037216121296376 -0.03980481283699877082 -0.18404835061114840911 -0.080226286261317072968 -0.063210712613336550447 0.2169583391418670737 0.014398202418524613105 0.054778926265915635352 0.2185549578196511189;0.090424261214862661218 0.28590798644729342737 0.25906581060142491735 0.13610381336843910272 0.35361615056944512014 0.28156904487257783387 0.27267023824506764207 -0.26332905521885152655 0.066693855179616054474 0.14869876673151397051 -0.17232281632195803334 -0.25003925205947424848 0.1414576786858912083 0.15617671608254027338 -0.23458284556512862262 -0.17627342691043912382 0.17069871730290525624 -0.29466351424777759149 -0.026421703168430975273 -0.13868892858946066382 -0.074098661730945938886 -0.082815001428795387284 -0.12042983717104904784 -0.14142968930975957642 -0.1996408711507831335 -0.2216518588009232793 -0.096558667491219718482 -0.29555450684965739461 -0.19605300900275612896 0.054119361788210362807 -0.13534669259878662206 0.2324990391372012688 -0.0222013026342517579 0.037263110379690912721 -0.26373049215201094242 0.21600579766321489905 -0.011327854095197428114 -0.13628401620486163548 -0.27063059707362829842 0.32246722473036404377 0.29615937566709843454 0.27645969669909276067 -0.090221435315974790603 0.19313534036710122699 -0.27232127848587717178 -0.22304709746432485606 -0.31857717452107231493 -0.31850835189829679317 0.16377584242457335351 -0.17335357832932404842 -0.3308760207710164658 0.2105364199937635461 0.39115111106142419484 0.52952982567277762094 0.35700316280885802112 0.36918786498091110682 -0.025827615372152491063 -0.13537327146723315829 0.030631602329211249369 -0.27065074857831883381 0.021745743195432487571 -0.2846099249035305423 -0.11514205743914991686 0.019974100531965383043;0.23661688625114735141 -0.51582306961249768662 -0.1320175234938320008 -0.034830415779133386267 0.26982005991104834886 -0.15708360989979999744 0.15483205724992202268 0.060051797648254565121 0.42400795150177089665 0.19112742924335149319 0.036416912343240695482 0.46834053058135555192 0.36478672274969686784 0.40362477977596034062 0.2671295711094803238 0.21198737157137417797 0.4151827358566752002 0.46095245944376633807 -0.0039234897993194045585 -0.0037602699290957774213 -0.042349392480168224218 -0.10262115860109029264 -0.090151443433600292332 0.14750226960120549347 -0.25688709840626877678 -0.082623486267342949319 -0.25356270325435609214 -0.12635230826483170863 0.34891241283965301889 0.27470419130438361588 -0.01157373269070784659 0.019704124087854435476 -0.1549331185343129913 0.16079300614494643207 -0.28865085679428886811 -0.14416426704621401744 -0.13452949730614208179 0.09691268144009668184 0.29838649043812903727 -0.040401106695351275688 -0.041647438929518602879 0.095888915583730444103 0.18993236168911875605 -0.29076202832555636535 -0.10194929478029449155 -0.12700580099523042787 0.089385562485453790016 -0.31053581746874331371 -0.30159625256497046841 -0.25826557481232376157 -0.051721708204552727106 -0.25372537558771013355 0.028394375103317961301 0.11345674457658627698 -0.009345703061896810937 -0.11136208164138047816 -0.0026122340223553230584 0.094466147467003436233 0.26634613691631020549 -0.2554630953659015602 -0.092163309656876829523 0.20866059849126689096 0.31451424544122247307 0.19343466939764375478;0.27594274210343944231 -0.16805013476486260759 -0.15565904814279057922 0.21826422463726830037 -0.19485551518688956629 -0.19470261924665485664 -0.13308067710088022917 0.32125938032810313905 -0.14281779243718134564 -0.28202774689585174972 -0.076674614877239199995 -0.070279858758690680332 -0.046232126381390625802 0.16569080076361700216 0.24657751644164310756 -0.2212111055679041316 0.15850899156435863113 -0.27773576272350675165 -0.24883889338429168725 -0.25317740074322242494 -0.057688985944132707695 -0.259968554231167992 0.17125534220286875442 0.019020735498396914437 -0.26171300197439822943 0.32450604263201787703 -0.16149782740085055766 -0.032885257963828087857 0.079781646258552246787 -0.25259888993205092955 -0.023567387087899530074 0.066262268547288477594 -0.043150455871560924881 0.21778878600642448404 0.30250417671748675019 -0.29793756335584004047 0.075906042103532356258 0.3197683557263047982 -0.26858307938960845895 -0.11554460393201909651 -0.025209274900402225267 -0.30110532281049379177 -0.14739863068137709634 -0.15569376949488972217 -0.029785951219325246947 0.20653141731049989849 -0.01997630476853908682 0.083733257412728662183 0.23592774820923179124 -0.047688431077742947373 -0.056063512983373649246 -0.21706764123860494697 -0.02740039033217283454 0.17785833489218699777 0.018707481504118106397 -0.28366347951432124841 0.22343202411924231732 -0.26705814158135721126 -0.041005366781453826686 0.12750502058333820776 0.10502468975195475287 0.013265581960151028376 0.17050287532988378514 0.23613472412044128612;-0.19904311607079108737 0.23196961956411554784 0.13321139391618305736 -0.24067930152399272248 -0.090571016782473146023 0.24052265633218294916 0.052260589891972478171 0.030813073643784220229 -0.1846809884437936311 -0.31101306419333984987 -0.094437433041841337134 -0.20632644366016167359 -0.26297434951403769743 0.090267100676189843123 -0.085585066986836835778 0.087519248339199176567 0.19114817257980784571 0.080931012771223595492 0.28354946325862595558 0.27619542365326316125 -0.22322441346677956986 -0.29299417119490112071 0.01605136906039775907 0.12088400692937292802 0.23866859650079619293 -0.16393931995369706578 0.026493731986350941426 -0.27101188017473193392 0.25938454080877837438 0.24624039555342383534 -0.30285638145284327072 0.29253722519745573027 -0.11698834819517817118 0.18326524858959084008 -0.21982550202647005433 0.1335975009360162169 -0.21156359306661176589 0.0018804121347605800077 -0.23126475018382586235 -0.19176865410001286971 0.099603823785941916769 -0.23575446686046785949 -0.18903913269843553024 -0.30523646783637231605 0.030220983466159513642 -0.16833021315801938167 -0.19495633621942015656 0.21134215355928911984 -0.029682659103582548915 0.085630826808609936118 0.29539411589409114711 -0.15022520621161558618 -0.15088203534666866368 -0.049321809719041057041 0.081177815061215491399 -0.12734948632988024597 -0.18115529205866354179 -0.035636262890755360244 0.19486779017436334227 0.26539455810659995372 -0.19295877795228372209 -0.10877506442108086926 -0.073027940566303295444 -0.066654592617620286865;-0.17646280284118956438 -0.01658926134513524081 -0.058773438197079086454 -0.067894166264280492173 0.1201522915462851504 0.049393985320128945549 -0.27584813630641419335 -0.17583890918998770769 -0.1827410057485066297 -0.14666897693997232865 0.21619618092991793601 0.03319764366626930252 -0.26616752103239438298 0.28858840213036862643 0.23977412012736729063 -0.044050283259925403223 -0.13061875923401777833 -0.3064561118153716901 0.081834457418871756063 0.32104586322184974767 0.20881531179241882845 0.072545099470003218678 -0.042608223344342631422 -0.019553246381288955091 0.30646462765449045129 -0.10321698233928530697 0.28755729218504955114 -0.103166051757716426 -0.21667002919944858275 0.026278059843175008425 -0.15962337110476229607 0.02885881654076238173 0.18345481467109975293 -0.095514885155800269279 -0.11158355174834870549 0.20453807449374827865 -0.10687669004663009897 -0.20935917835707371082 -0.023929274965050099239 -0.26016026701595940107 0.32183842433852805076 0.357087460237600407 0.17873989909497242645 -0.087713263523226336904 0.19078943240024018313 -0.10303994870257922323 0.28931447442219343502 0.034159802092789667838 -0.10151939407902164925 0.30244611347932204293 -0.17810631792223455272 0.090521132712091362249 -0.19593970406384772498 -0.2062062236752825739 -0.072337280787506272328 -0.21719044036379911433 0.26301824845967214372 -0.1950701396293542389 -0.18084639449751654938 -0.025203215786614531491 0.15896392504252099265 0.010983853116670098948 -0.14238286146781917174 0.038779681061113999152;-0.1526779950932813934 -0.0075290058483479848153 -0.068515307044400189374 0.22581829913834278178 0.11416805132425693337 0.15099618884291834964 -0.2703752726762053693 0.13377798838999027664 0.20447172389571843798 0.16546414648458890317 -0.18981242708861403856 -0.051781154024814826653 0.04731137409381479253 -0.064145912519416412034 0.28297585882703407689 -0.035905456048253077406 0.23547233089346292223 -0.07325555550765497359 0.15167234441240851073 -0.34158730479880544673 -0.24999256543915027162 -0.1145154823581224085 -0.32794212451703524946 0.20055183323340075585 -0.03378774559661368998 -0.3066099241457454494 0.093361649586770178999 0.19263572724878866294 0.24664334792195230506 -0.22121705827520787846 -0.1507185918853284623 0.082215265543565424489 -0.32272636619859884632 -0.3013764452484309353 -0.22958600628135902855 -0.084682515782259548676 0.2747625046283760919 0.088518893947040183656 0.20542545454646371494 -0.046768957922442497277 -0.12370263403893667908 -0.17245438961224515695 0.1148347134723739088 0.12753492752693981749 -0.14176565668893892358 -0.11853780262201402129 0.2135177215993926958 0.31948823354718564049 -0.038032704186668174484 -0.1635231676833611425 -0.18960174754728462143 0.30252554505592871292 0.05230375521375234954 0.043175956748771025795 -0.14750494988780868399 -0.11644756882351615934 0.01807599474657497346 -0.070731984853117352285 -0.28918675108594138479 0.31087931726871514959 -0.15039884058869559813 0.20728272070756151302 0.27021835437309577044 0.017912107829201780185;0.040738337780162149626 0.019844379795539206224 0.13339569283462526794 0.26276014644167700052 0.1696937839785595814 -0.27076243902441565758 -0.19661169772413478185 0.059872006637197612566 -0.10266906136963374618 0.19563001362182910747 -0.33808896938803489896 0.16993200911040640122 0.071594555263289338942 -0.070661655989794472377 0.23597451419818790685 0.14657190345379675356 0.11558451273751876864 -0.14764344543106194818 0.040661288553667331025 0.017238397316933960768 0.2268256389076103996 -0.18791682786158858676 -0.090070364283181172937 -0.17041021361372565845 -0.21356493302052914629 0.18441496502200943608 0.20571195244856962936 0.29056230612671724023 -0.03124266732823394524 -0.11982731205146891773 0.24651037699525432667 -0.21917198632325546326 0.17310675947680873032 -0.29311037775414910955 0.21039675381913885976 -0.099726229404937929979 -0.042000545886540251173 0.1486277759280822397 -0.03183640179754955446 -0.21614377752760849383 -0.27280787917673465781 -0.2411447660953873473 0.16849857868661047289 0.21632174363912828885 -0.069516961092269347056 0.26906945873488197218 0.12335664830159050187 -0.09263146024120329225 -0.11947328156266949495 -0.10443998093491221879 -0.24313376050219404068 0.008831492868885213593 -0.17254563791725088806 0.42180972769845237469 0.32825120176201949551 -0.14100253404149770686 0.071625750484677258578 -0.27274325632848694934 0.29303810934608320871 0.031109867335352051065 -0.14215768966865530154 0.13378397966648122863 -0.044110806206518665684 -0.1088735659236350628;-0.11576453116726739823 0.32785826304923026964 -0.2742165546381900576 -0.096789465943045674412 0.10231106955306018547 -0.10057780417272307871 -0.17884322292184268166 0.2533037968475089774 -0.22929215322872673055 -0.0090547870227267578808 -0.29815749062260998858 -0.23327664456956798134 0.1499217279788256918 -0.15824009263378568946 0.2485505960038840445 -0.21616830945840723177 0.090620330548843358587 -0.23384932035760280788 0.31109115227419747995 -0.14072350202624434035 0.19490572051396684583 0.15596611608215646405 -0.11352488630434455497 0.28278904814590966055 0.28898227582851215844 -0.033590127497778086985 0.028542462203049765584 0.26056541452198611619 -0.27171003285155775897 -0.168375358975558026 0.13415311629693815743 -0.1089438562932596305 0.072117353533955624867 0.24116886474158519271 0.187900659182801133 0.26823882665952436533 0.21784292524299703198 -0.0056948541230538354124 0.16303882838483366169 0.091137129004658978815 0.19260194607309261139 -0.26849737942442203353 -0.18606448503931041771 0.0092716998202588395833 -0.23890629769266147342 -0.27842447009605847397 -0.11526897112726675054 -0.1177615217647589585 -0.028378290259467725543 0.075911172874482221729 -0.216276655838817361 -0.12907598752769749995 -0.053530928363237230416 -0.017653865119739372419 -0.25968826856299936923 -0.088394708373850772176 0.029372186100973363132 0.26554619667969875385 0.11762284937904467219 0.17288100200305556164 0.011502517380317919815 0.18097088147665488234 -0.30334052429780233862 0.23724846210325695184;0.16078052511707352501 -0.028847843244356814046 0.1239185303136272065 0.20839319772728032154 -0.30308938690419517936 -0.097849275985980060932 0.091658583217273589816 -0.19595668308101726884 -0.05925425596850113219 -0.29709238660464359905 0.19498686748269525304 -0.31598930249140977367 -0.058498573758554113511 0.19475785451210633759 -0.19020163395312694732 0.12733838803672226092 -0.31159730957422471231 -0.15336023850771660082 -0.16607810566644615191 0.2317742081128920939 -0.15698160108356135067 0.070068666454852823744 -0.067228458848592798081 0.10163315061409421147 0.12894089141587777858 -0.25543737299312041511 0.023608056640303701212 -0.12770862702075788664 -0.2827497904513770477 -0.3026915522569237349 -0.18015699802948184627 0.14878523070959792651 0.10764632018261069413 0.26714706823085154763 -0.20056859924058870193 -0.023487883396092808924 0.31141158519691347628 -0.27650465131575124866 -0.1074711434379743008 0.22556891860997738131 -0.27497212394520270662 -0.0015194936240150074339 -0.0769822005644485996 0.034103066100008003203 0.0086853407786109341343 0.08622929961674818955 -0.29361719675227693216 0.15646178199581212143 -0.13128722930029834703 0.13215173191264462105 0.28275109399572645463 -0.32615789310386122946 0.090250995383141643935 -0.22600597459430438185 -0.10817221424368284044 -0.19724471475297722378 -0.11962988904075556873 -0.026196659446770565599 0.12247632468624888857 0.11269108662543268762 0.20525237646833097149 0.29196298044411411743 -0.24168164868474115159 -0.063956785869720825244;-0.041823663370798423722 0.21835247325170911714 -0.05511643073722402586 -0.26267136800460100243 -0.19083601081500561891 -0.28818770552270162044 -0.1974136238422176115 -0.28465919665415612139 0.24441859662016035548 -0.052146504662826866083 -0.13725770017283348001 0.19974678507573498387 -0.21389988913083760047 0.23801383912246476537 -0.27149545872978803063 -0.24207907013110271932 0.33200168212063801976 0.26179325593034796782 -0.11084779317468008986 0.21397867758074701205 -0.24658911034543284924 0.12701153899029560268 -0.168484672880305969 -0.16007307881324839283 0.10477613007668837297 0.29373485307926311405 -0.29615004048407939097 0.08445461146091423621 0.16972422629997821475 -0.18388288449405060243 -0.11628226899538096628 0.032376163478604454149 0.19298895554438877387 -0.11734254522570224111 0.21956537097954584303 0.24219842271110714194 0.027465644894061638087 0.28359017655396551172 -0.10404135682997850409 -0.29725859391495351725 0.0051705122783696801092 -0.1921556595941253387 0.065387415123857567378 -0.013807946179758390226 0.16930752162862469645 -0.16764760023941910339 -0.26526201823579692585 -0.21846302627393007767 -0.12307249178256642053 -0.13902366103273977593 0.17290568468849751294 -0.25590299794883464291 0.10292612994592859055 0.21175214530760019804 0.25149968869845978903 -0.13427524640002083678 -0.062511810980255738679 0.16750232554713728739 0.15039741020079144818 -0.084205662782190479621 -0.055861825849914448217 0.053898547748063282969 0.06774679199289974918 0.23323524880907559043;-0.24557543708426432527 -0.2938402584535411699 0.16289829185041854176 -0.10909825304876541452 -0.019812476224289190391 -0.013118504961473117718 0.1100458578905487983 0.13307559737524879417 0.042289774040459054971 -0.10896297493842356519 -0.089684517584959461134 -0.26099081586182404369 -0.13605374043732451628 0.14883623352366265324 -0.27655177985325052337 0.05013286190795351871 0.18672716684125501008 0.11667349198997192805 0.030331861832762679887 0.039273309731203000228 0.033066643048828843476 0.059493848521288410225 0.11461196433350902268 -0.15257853109623734089 -0.071051389968332462344 0.11934131469007677739 -0.13924548017580712367 0.2810397767759721388 -0.26046330712062165658 -0.13404398280064380722 0.3201741371645442924 -0.23890183867524464323 -0.28148567632951310147 0.17106683298529792858 -0.045680387367924325803 0.11145148839658187978 0.11983898473016336983 -0.31377571031756384956 0.068393755262005473394 -0.091757362009362103406 0.1889835195209564056 0.19070553666348466493 -0.24064169848861316492 0.28722555934481108775 0.26743435223645350973 0.13893118002315957282 0.11259443771373181531 0.33005169453707616789 0.22105222298965665484 -0.21320459725246782012 0.24371876340673506722 0.23796521029161671335 -0.046462016986216742032 -0.24608017816620023077 -0.26542558332662624654 0.15021540957473966671 0.25811571772165470273 -0.26927401722100263726 -0.31743800998185622841 -0.29567584282430797726 0.079046268803679028969 -0.044535627627708296306 0.027751162171361070524 -0.016311603604639457465;0.039887984678654099524 -0.10564287426118326718 -0.099451592842059732824 -0.019447393507065414281 -0.10120364671774538523 -0.040997577406980643955 0.11397276143619311517 -0.23639229146138590609 0.18955282004180681876 -0.15032283216004380111 0.19718989069712644646 0.30349507400718456207 0.14040989784787505368 -0.26219252806340920259 0.14293322083056564376 -0.094287128559243288395 -0.12882777646342516431 -0.0048390995872409610715 0.30799981558281147587 -0.12286756759141834183 0.2355682524482296536 0.16149331749815820647 -0.087177378404668659506 -0.27377996285193728632 0.34329929472472753282 -0.037133967590481702092 0.10700747867374069133 0.10376277913512844953 0.33831453994390353612 0.34248929262470390045 0.30652644580461912982 0.03891384663073316208 0.14268966623471115995 0.11071140869749467039 -0.030057793738119203963 -0.2492191375487104732 0.040391923564949597236 0.17489128691618982536 0.3143416683676786838 0.034892153161617492363 0.043733448683281800351 0.057609787491765138134 -0.22208605052335991803 0.27978494872535303317 -0.23779831231803083558 -0.28689843276243504056 0.034707108518424692467 -0.15009128648772229742 0.0032459037685775246097 0.028209398139153241125 0.2573998591878458031 -0.23199839295781146675 -0.14295487661960540327 -0.32444484552056296334 0.19445523183831234237 0.21805689349538961985 0.26494523125464769508 0.18425522570699637281 0.083993423436143924143 0.10441534052480726247 -0.21495544807998825942 0.16693700038756448256 -0.16747300956519331483 -0.059109402055469821569;-0.23408971325224553484 -0.10010656141718245193 -0.24193257508881055307 -0.032719074901254321941 -0.29686480392362607494 -0.18427299180883624508 -0.1281065777834625441 0.12115807797006346302 -0.11874022005126731727 -0.1238929743699049707 0.06309950941133860014 0.078319618310618344115 -0.19305598129455139866 -0.26354349493708145724 -0.12082049373269965198 -0.085854923085078332923 -0.29112559162566542525 -0.012871760298061555791 -0.15573426713021998324 -0.073981171795267697266 0.126625668864081109 0.28487519378937692371 -0.20532690021597180263 0.12705849103691360669 0.28647939750625966981 -0.22244461590237185611 0.26333346807422436386 -0.20140020603607938776 0.011916674459231639191 0.33244455119287119604 0.19670159777953741265 0.095516553157120806516 -0.095277013523063405764 0.22860647277555840029 0.13317686157224106758 -0.018545826099511785595 0.18046123688497403559 0.069200252738346054726 -0.20635660145937470555 0.10657441702592700128 0.21143765224021124349 -0.10847507453783217235 0.21970283597850101542 0.068955530040897855537 -0.17165930064434542501 0.32831447535013152939 0.00089306934718896770382 -0.22396125897855234665 0.092389687224751756989 -0.13959571931810621503 -0.17698954218541929073 0.14267683713226905762 -0.28574585785347889066 0.25139868377547447409 -0.28211366856954533944 0.34560401404821838867 0.29611837781165400996 0.32789160728138855294 0.019837715371188578695 -0.032515980409399375395 0.112411440714308003 -0.15789678749616936626 -0.063848385055985584779 0.14111477841291100721;0.1991298564238668245 0.24832724069620337737 0.085842398059589250514 -0.038192287888095810544 -0.070213328668138813571 -0.1620905601998357537 0.087139205886904116949 -0.25010264678664706484 -0.22854671252704486517 0.36646223296719393492 0.23775310792071854826 -0.12044313809436989204 0.19526015046283201615 -0.23764529067066139656 -0.15582366856243959341 0.18688302495670058856 0.015632897081730334071 0.070916319502718858092 0.065009457142575347022 0.21426953796573131039 -0.12744001331283547063 -0.21395004924488447706 -0.2186741100623808276 0.33122930612769219128 -0.19876855117251349125 -0.085861344952821425092 0.18904857119790652309 0.27933422613857356032 0.20900646783066911816 0.04225837090061684842 0.26561971511298820836 0.16533507663005550525 0.20945718282491568307 0.27548820120304151615 -0.22917918074882248636 -0.074187336859960803515 0.13391566239516178305 0.33914001877806132512 -0.2346366967015540983 -0.25470335318130293834 -0.10779015506269497282 0.03407140442913072359 0.2423228741465368874 0.042384955281270356164 -0.095479460680787275884 -0.034571312032784039248 0.077013099462608730628 0.20424713708991101835 0.15609120786630445443 -0.0024862353770548680648 0.15906375206442899262 0.12280755316064252691 0.023159140831595096538 0.2902871832219957593 0.27040367309671464735 0.21753707830545207513 0.031755021124633034391 -0.25638543616380915502 0.078263621128055890774 -0.21289885290258753203 -0.10937768388848455314 -0.03768276262498921475 -0.19157511112350861238 0.26431263684036920836;0.091622086639750063841 -0.21994174562027052344 -0.17246877468268634326 -0.29920291594677195235 -0.24230633918578639574 -0.16311546999844353523 0.09867275885869802865 -0.36146597192644874807 -0.35480923218435561628 -0.018613706527718713174 -0.078798209808848690416 0.088001911858568843128 -0.12927054101188190094 -0.27284424312895771969 -0.33307020265220232957 0.074471062333530305133 -0.016717499638735221212 -0.17507976277345138616 -0.00094865888953791013827 0.08384236495143528034 -0.18662556643213593088 0.15897024614511143237 0.082813244957414253178 0.027788250049379011747 -0.069209383491334583449 -0.00099668742289801110466 0.14033889922836123576 0.3144127296165288854 -0.12751021997201042457 0.040689808616413879194 -0.33765315923160488243 0.099540383891255398985 -0.28178143207361316946 -0.1793414819117681025 0.019221892531387278769 0.19439471860849025231 -0.2709651706695123119 -0.09121379387619395207 -0.049138102610165296236 0.1636662885221735475 -0.09367684675907873848 -0.082632056347464857837 0.24403462070485057445 -0.1280680616463527044 -0.020315672273093967476 0.20872445799695896196 0.1926420052331925814 -0.25992327678421323078 -0.23926861715860983648 -0.34571399440340588871 -0.16075082840455354183 -0.22541726693047478558 0.021109739004268202739 0.14251651904812537297 0.094660468389016871882 -0.22111722484285875612 -0.23943842722715910631 -0.11234740768463144511 0.029188953252410596018 -0.32447468535810936041 0.32385501186504217497 0.17627863647972738526 0.16473318229343766883 -0.23948233092619997109;-0.33396138360493088371 -0.15863759741146163385 -0.2628367309075335112 -0.057947471492869162546 -0.24028615449620413513 -0.27371288758730077939 0.10833145707619451503 0.22346742934127128422 0.030259290018523534588 -0.18779923602011941441 -0.051001024915460463349 0.011976915737572788739 -0.32863264555253735022 -0.047338243261848170218 -0.10153270748855054706 0.18823364244789270172 0.0052451586748972038599 -0.22096370759334321709 -0.022113885141592289768 -0.25743975368945470894 -0.15262516413601281973 -0.27906134704574053762 -0.12844699837753775773 0.27378259290056033981 -0.064939041916825868128 -0.049998758803405783657 0.1671549534009771909 -0.12114265356864716006 -0.29137393745731765549 0.15360070373500847585 -0.24439773006611434369 -0.14221188571494478015 0.14673290881960934784 -0.26194580040305026625 0.31540054108658088783 0.014895640954527273117 0.22506402352211410389 0.0073410900288213409154 0.31962935729343244784 -0.070778467161489472259 -0.02061939551850543173 0.028721980210449186977 -0.2577922242434024791 -0.2245224773769767812 -0.19021183800657134877 -0.14750651475690926273 0.1954823540566568707 0.19810492717248995298 -0.061657479072085477623 0.29238983920919919823 0.17930269292354286681 -0.078599036520400969441 0.20858642518081135786 0.15231197413854313805 -0.26408335804042415429 -0.19201353864848194619 0.12039064290047865602 0.0094647764128995663657 -0.19767861050130677847 0.17970635200284462707 -0.034561095488697048117 0.14320423045016406061 0.19714453667443659901 0.24650380939964688931;-0.25020192851777284249 -0.17081904668447137063 -0.034096033359782722261 0.31537732195390910661 -0.082716168353849817141 -0.15360886749186669631 -0.0042085328490656069567 0.15923753914365101902 -0.10373742985080258716 0.25396615921233134383 -0.12351388239735003327 0.085734357959752441336 0.10521793288209825568 -0.12117984054279348771 -0.11037160361316135371 0.053030765605620144854 -0.17192969823657003325 -0.25288353697500615125 -0.016365311879386786054 0.089874422173416443349 0.15224074319273361855 0.12183172966433461482 -0.26899647191850689643 0.095865702528053986509 0.2851590863786515051 0.2513590461391424502 -0.29050669690577318738 -0.16296862547301260715 0.20516008830576379363 0.31869339838095989137 0.0028300430008889711567 -0.23031525190589574592 -0.30394574892712039604 0.075889544684318119283 0.078380894121547736719 -0.25413099617122941742 -0.23523777204256685058 0.19613097318615882458 0.19549454567315407982 -0.28474054785077262952 -0.14229767266028109374 0.31693272531651467405 0.098862229112128469088 0.098102400528577091143 -0.082166961363029367149 -0.31762020115594352676 -0.2554222545624135754 0.16841138247768561165 0.055397740938950487677 -0.24577018135955333578 0.21622660354734860033 0.19737507188161260152 0.07955317822011413742 0.050940057140583673567 -0.051230367086478871552 0.29802991001672507476 -0.087359778645144769982 -0.3247008107009379807 0.20590978481534344402 -0.21134323732732582246 -0.097875190485040397537 0.10373292269561172618 -0.016075365351815199683 0.073795344065091986185;0.005909076106726668387 0.10612625410227174982 0.24102908039211068392 0.18710095902280207691 0.15638068431792867541 -0.24436061099782352413 -0.35925225717730602248 -0.29123632098529333989 0.2147412609712830156 -0.32492901007857044604 -0.32917144569509709795 0.10292034682731400486 0.12412195028021200116 0.11083934157668934306 0.089918746573422816959 -0.019570485231678837884 0.20695715525370306231 0.062783266256046285636 -0.13961274348923732869 0.15975468851051677355 0.1667059359925767148 0.27082695081432306417 0.11763452751692569931 0.33137142356085053096 -0.091180672810926954863 -0.25669167055227010144 0.1729374163503727968 0.031570221003529325143 -0.20138253899259750401 0.28703973807230492854 0.10829857253782117221 0.31299718277115390341 -0.07749788822557698853 -0.24726579856866565121 0.10661729296259785105 -0.035818075819889001743 0.11631927595192133318 -0.07618465352974594651 -0.24905256015645033107 -0.29186751591522230864 0.19845552674250219183 -0.28910748557599685871 0.041002174544524719324 -0.26040455924030225798 -0.10364805106314370353 0.046185787183563899172 -0.0054771057005023968817 -0.3045352289270445989 -0.10045774568114046454 0.012184431004046484409 0.19885772697047984781 0.194148345366543712 0.013800682461862438799 0.10278407013908905099 0.068070018934277429223 0.13004080525412470282 -0.21631568069266721155 0.31161634355826900444 -0.129730031115688621 -0.19107994951030821129 0.059218633186234083399 -0.095026394875455375 -0.28429343608812035482 -0.044289472877268400153;0.34193796721010288886 -0.44549234751377636554 -0.29726782473806023788 0.10185570408210777027 0.3002408728782224312 0.055115516066418020202 0.28520610611013508251 -0.11354081182611575063 -0.21235982217524465576 0.11500981811664891252 0.24522044199511316975 0.091444451431824086418 0.038571461271103335555 0.14152167775255919402 -0.32842806189770706871 -0.22045039364910254398 0.21333950300664966671 -0.082100107274650030442 -0.21456077046953750398 0.044472115075628149139 -0.073900464462767739837 -0.16432323568327728003 0.1566259428015956412 0.067540956714193634003 0.24935940437085676868 0.07271664982946045297 -0.20457593578786237298 0.2192046852465076856 -0.17311940079109824908 -0.1940133799093424205 -0.15052003170133060328 0.081766973204752430027 0.26409600951793554824 -0.23751508012495503586 0.096304008280035560685 0.30891108168886993735 0.31481213805103186454 -0.21859371059023544048 0.18076273447325982846 -0.44389537617003527181 -0.074502043376140761333 -0.38020323238150804945 0.1579858078584669423 -0.1933277091937553871 0.21101007746242025909 -0.24513349503072684454 -0.22831727700095680311 0.37650193807928283851 0.18961063024183405501 0.22063845519467670253 0.10350748948921259518 0.15529184296659570563 -0.051904105545504536368 -0.45205545378882039387 -0.063924964982322363127 -0.36450878905395650564 -0.11134996195441025646 -0.014045030413184576845 0.0091902444137046349765 0.044365496932596344692 0.25250637031391920395 -0.16505423974986865865 0.069678655119004798135 0.12351241464606567411;0.2700158655640442773 -0.054181512109468817073 -0.24212677355187328665 0.27597966822487868255 0.31659533292365138468 -0.20836959109285851932 0.27274172366487159369 -0.17850580415126793277 0.22311668115126484513 0.27346935709875691556 -0.1176579435483031677 -0.22848406414888353111 0.21578765377792122337 -0.016852912526873521648 -0.18518669541726945349 -0.13131108459826132395 0.26923210832760885447 -0.1833304809897886023 -0.093751674890717062727 -0.19311015780862100799 0.29849544601560340507 0.29856477406657411233 -0.28522174630905905435 0.17672715420459175761 -0.28521502971085077593 0.17870222657025117141 -0.041014807947880559114 0.1167216081672493716 -0.2385152383460024117 0.29678987213717850091 -0.032253199789139978815 -0.15981949893560148945 0.21715519398538424278 -0.066473497676428502934 -0.062119605630218031889 -0.03865100174141588435 -0.013001584125731331654 0.051956571409782208171 0.15540273012515848361 0.017959683369274451886 0.064427286397092151105 -0.16031651773051308618 0.15585251148197196147 -0.22517355569589381226 0.2332083066089712664 0.092116348342929130211 0.25926238173925836294 0.1471890308474960718 -0.25251266335438393718 -0.11127827329291177516 -0.22491077168742423797 -0.0098681877284162219238 -0.045768114473228878325 0.074230813648025764651 -0.15755695662013669001 -0.001538514259662881415 0.2098194020895119416 0.33790231987910446243 -0.15727994909854137173 0.096548567351184791385 0.20931857323053165709 -0.0020659728523837643868 0.32459835912429974014 -0.19841989882386334987;-0.37345035430378314967 0.4114461195016506645 -0.21577994291944402327 -0.13486237785422158786 -0.36019725421199472182 -0.33014485141634564158 0.12216870329463996869 0.21182654954453242202 -0.14180577011189157699 0.25894009262046674413 -0.12451424556403674349 0.24811964431496111305 0.1997802585572029388 0.2194782699872759868 0.066352688321840103125 0.28655446481012636362 0.17716646732275145859 -0.11982935078624208647 0.013765209620755725073 -0.087108168065914745593 0.29629012451512487525 0.26769901655899908111 -0.046455068123300205518 0.28395884505209995075 -0.018972626542548040596 0.12559429739426794526 0.061763967217752249739 -0.35553740608651668298 0.091108035065986789358 -0.24030122493481090307 0.26011466572956737364 -0.16790136040630990188 -0.12963864444339776028 0.27914744860235490842 0.027277582822720018718 -0.22296103134531619627 -0.28123047822738900248 0.070588426038701218568 -0.13945801156115197883 0.25112767163028354434 0.058769974497836600935 0.1375443249359090403 -0.2806492742042608346 0.18727608440706169923 0.12415864385460501085 0.076122396920907373086 0.24969825995188427159 -0.17514828845734339846 -0.046748640701035820699 0.077746483290012241563 0.28064898540320026843 -0.14056648097394205954 -0.11703855297592340168 0.30493506255400038008 0.19912231074338143655 -0.2238009517057133746 -0.17006601960690742592 -0.17799769631713413531 -0.16007925262735295258 -0.1620398312462733581 0.1338087043689534239 0.21003973735258035793 0.016901870830333034362 0.13193769524547799277;0.082436873869903184997 0.095342264513325516995 0.16111650191507231877 0.052579806618231784976 0.22427540442197660409 -0.14907366136287986125 -0.075216611005285441416 -0.3011663326000343921 -0.31215704206116723363 0.30284546621370056485 0.23786153996498540786 -0.072473700450634448433 -0.14699968730645082693 -0.15796514987584853174 0.28884594445978767352 -0.049101924340139532776 -0.10452754119324754456 0.056310681523826608408 0.09957964202208975657 -0.31183506864295396088 0.056840474989287792518 -0.044589642004739464543 -0.18803099533832295931 0.27945709110003569275 0.1280784181175462777 0.18839862943593829736 0.049044553296115622754 -0.13124098321014759927 -0.048331770708630296396 -0.26121628595990492583 0.2857117539535606876 -0.26022495989913874137 0.090276241715858518422 -0.19047109526775052313 -0.17550701645729813172 0.04603797243056238081 -0.27941280508012339423 0.19556182147716433262 -0.22761672468088373078 -0.26624997497577734817 0.20914148096254156495 -0.07185980908885149232 0.21488668172781769106 -0.25068794118076415112 -0.18985162533837329768 0.17355608966116661818 0.24148651643698235136 -0.14745944244103889598 0.023198955558614446637 -0.2704819298950494888 -0.052967544297452637259 0.055687131819664663357 0.19946872102878307476 0.17203185546940802375 -0.085269680117852963974 0.2298014392089020308 0.099129618357302898279 -0.085547890135265924894 -0.26899625115596947911 -0.036591125395140686183 0.30571006926905985868 -0.22105390814958489343 -0.018001648010407576145 -0.25103515908896006925;-0.35751247823603427012 0.2470595153934588839 0.37475313726137654546 0.31899096138636912068 0.1215883101592195592 0.088529581233796630912 -0.11435642411885764413 -0.15909367102094776336 0.26232713604351198811 -0.2147722769493882744 -0.35429608261036948935 -0.16585296385725623036 0.15416994610851203484 0.07301194256491361223 0.17195708008844401427 -0.051379922812553442679 -0.054265028120311309401 -0.0090924880499414773016 -0.29007455826606065585 0.11402497853877975598 0.12458125434844501134 -0.18756701079337831373 -0.22526908334486539509 -0.10255329914041716455 -0.20553098537678562985 0.096566910417049275916 0.1429455895455559733 -0.2696227374589891812 0.083341069163765948979 0.19388619189150466116 0.15076745789373263706 0.1078638667352377345 -0.07706310254267498272 -0.045614305595495757695 0.060727161297558049369 0.30562855030229790776 0.17282254057042370499 0.33190537102554917848 0.31536190016794496405 -0.19586705839690593534 0.23771441728756723122 0.1885610160077815789 0.021069847203187108686 -0.099653053902728924718 -0.31454875311024782514 0.02573447027352897265 0.081738553331579977268 -0.026686120773484481999 0.22196678246891377029 -0.29358170721335841158 -0.24059192333518980567 0.060501600227767349249 0.017943609807131142425 -0.14459955678808023016 0.24892520259974151853 0.29804049042123764712 -0.17705027653023941436 -0.15296338786039129221 0.13693435491890557087 0.13898418770640993958 -0.17998009674218248821 -0.31709545997073906864 0.31716869902025340844 0.026534907310909974787;-0.049764579112784479431 -0.10011316792503141548 -0.049189515621801620238 0.17538532866509012886 0.094330148516170317374 -0.20274659665413727327 -0.071002964119955130906 0.13115538207625807021 -0.094855149891904522175 -0.19839425576626751324 0.11632545644405961616 0.32947856321617557951 0.23518953270657186327 0.30343267547061936185 -0.016167289551818130738 0.087386571108675842323 0.40367806964870556197 0.24485261223166338018 0.36370174786918429977 0.18637643239756707114 0.26341397492227014432 -0.2630737587966982538 -0.14955713596582614899 0.077085726384854821869 -0.12329190574115850287 0.047843078437864117181 -0.24650773845088466696 -0.21084311314523965231 0.23489527299958901096 0.26545526889005005566 -0.25331171070897473552 0.29685575949881465307 -0.028505658791171381572 0.012043870639508846843 0.057317771216565928383 0.23217460066703540789 -0.30441869962262924076 -0.094075138723035606203 0.17349605953106239653 0.078382500787666273268 -0.0057260717715125345265 -0.068289436324579053106 -0.0010509916915675526078 0.1711210070405733974 0.30891521928131721042 0.0058130933271376330346 0.15253139374167559716 0.065913294029508295857 0.30178457511325323948 -0.25479732563886836605 -0.25911445716531139594 -0.091439472325027332245 0.083780047498163756625 0.23034968185264917406 0.11910540202068348181 0.05969590051036448991 -0.060449763086637117726 -0.29176858231894947648 -0.040578385286360138529 -0.28617064772109945814 0.28263461876816065033 0.22067521302344086931 0.15760333765782094662 0.17071719685378072828;1.0680886087522314387 -0.14995197816019831261 -0.36202411713269933013 -0.079532070135721347204 0.081914344488446921844 -0.2833839749436040667 0.1859417069462661054 -0.027943063233383979432 0.070404674744962286725 -0.20197128781251283414 0.28597786438730443681 0.11150193001569980167 -0.3115116398645211282 -0.22508045610478105703 0.20931637764174867988 -0.018639485770594297481 0.36532297992177664714 0.20146370324207954483 -0.078812792426775191146 0.023735519037222662514 -0.21764410709710158009 0.29091891932343411087 -0.29253819352101090301 -0.19317359770545436404 0.27541883491901780756 -0.14633030214904413358 -0.13541059525339832481 0.23995010725163734566 0.052217327475309063822 0.019833522082889604166 0.021835616532184798366 -0.17896245937768096024 0.10234737941378363457 -0.16404300869038263011 0.13564833108927945582 -0.29016549978794164977 0.091468437800143895244 -0.34090047752688285021 0.015812307012279147589 0.064762639488881140748 0.12734501468319994744 -0.35589606202817064551 -0.077122367933280422392 0.27562156613618737921 -0.2031478270774614292 -0.085262659009537125621 -0.038723248790045357304 -0.097482380759306028195 0.10549986534795781357 0.22669271794252848773 0.047629411807103658183 -0.27702025013612979754 -0.048480734545574867556 -0.38192134672996141953 0.064834136405462483577 -0.45432869535774217384 -0.33598911528546954175 -0.25521987664004136542 0.12740815838636879165 0.0062558027726294131166 0.24927949714294223016 -0.057112304362984860073 -0.028507602370638589206 0.29792854424448811379;-0.1433834918595930652 -0.089815805041246241092 -0.20129736216356677869 0.051700901622501571619 -0.32789948640627936127 -0.080652122483745203319 -0.11290999140692493941 0.12858908053562795315 0.17099571870489438385 -0.2705992988992743653 0.080840427718782553734 0.20256647400910957058 0.18450802481678219014 -0.034840593841242134543 0.26970645928000791525 -0.089887116294853977583 -0.28083390269644359361 0.23648605104954442679 -0.085075580656112773092 -0.32236853803173554089 -0.080945776202835523216 0.028725914921401165397 0.045591824261433940013 -0.32883394487027650666 0.23499819423889500847 -0.073637094299494831873 -0.03837564042647710616 -0.064060547967108402712 -0.01577261891108159772 0.13140009941876279465 -0.25586707720428264468 0.080623039451690456381 0.3025408741939844548 0.054155473308839692514 0.18810587907750167536 0.21440108823548986727 -0.13150438437679209946 -0.32670512077496421943 -0.10735062876651926822 -0.070027339514412048627 -0.016909753859621342448 -0.11570676919447120401 -0.095414315672902136334 -0.32190348438337212933 -0.025459063208001259104 -0.1795936505290538221 0.16171939565896825686 0.028907899197093425703 -0.17977535801678373728 0.18185930336801836571 -0.27948859083802013448 -0.0082293592546587180508 -0.2648432143715273579 -0.11251442948839289471 -0.27211745545919102662 0.32093483251158527736 -0.14460656008136898998 -0.10835677447962240028 -0.27501286100951810587 0.0078994396385968588398 0.24199479272210386305 -0.22072953020878102737 -0.35765105804109859067 0.23330201331236130602;0.2261389058518484263 0.052809112453947461285 0.2331609111898452491 -0.22734082723779691637 0.15187385582802556683 -0.28045157935936487759 -0.30571968651157127583 -0.21020170367386467603 -0.20676373340199524775 0.0069359143193457525878 -0.24408398633595868032 0.03475623173369161989 -0.29637830198124703873 0.1004264918946002616 -0.14185217386518131355 0.15231014743532911293 0.27536069611725927375 0.011670573942460458691 0.12799291740353493929 -0.063029296130387921226 0.19657128240152879628 0.024926763442624920442 0.23418037228634228097 -0.24158323776663395699 0.17712926327785924463 -0.024827234762817580044 -0.22843975596914778414 0.0010592949439346775048 0.13674848816307796917 -0.089163682141633060496 -0.1719672742447460323 0.16229650166484807516 -0.28934596979712845499 -0.32372151475959110023 -0.1941464390486314362 0.26823567371661272141 -0.084718006213306690233 -0.037418904840939237744 -0.16757140925788951979 0.16615667096016670246 0.27926324717712569523 0.20059957004092521249 -0.088916185286895113582 0.02198154393524457198 -0.2481388174701710525 0.2062900782212437889 -0.15688972613994306426 -0.062862758621376371715 -0.33801514311680580516 -0.13145542078467237213 -0.25611668006890253579 -0.23531484247288816936 -0.17649428688925772324 0.27479921426758807668 -0.13579131201171890098 0.068028453089113372076 0.11586349119643833683 0.017448581987336224397 -0.10240864741535414539 -0.32966667017882811397 -0.15688258360526047275 0.17809516810529774089 -0.0080164153763507758899 -0.10289514371420467598;-0.082280638262403019145 0.1999575475261186619 -0.309956706761403189 0.25162368710211302503 -0.020091480402460067112 -0.034286696833046824417 -0.048914837666432127439 0.013262029645208464612 0.22617126593150399527 0.024940297587190126544 0.31635176830911554413 -0.07331311552177043056 0.26265436773097777801 -0.19871050539899873244 -0.18449606299911897045 -0.072268381492664818255 0.068807033486046123572 -0.32780819697156360348 -0.18939055316444647348 0.19315525948937276035 0.071753359649150152966 -0.11774838877849953811 0.13202018508716920064 -0.13442239462807523132 0.090256727607548964398 0.11787682023158116418 -0.29788750046150702655 -0.1608578367788164043 -0.08676829229148887157 0.10948017691831843368 -0.072577443248657169672 0.25669396911271308293 -0.11438429350100839943 0.1998959971242884881 0.12263724800397335368 0.31816992251703241079 -0.086383633889687005958 0.31940919758036379061 0.055725287760178231211 0.0020244580518857784729 -0.29741106156662783233 0.14028309173422057188 -0.20979517610311648745 -0.11902916306499476684 0.0097451849513070804704 -0.20940180656233103873 -0.26856748984308514983 -0.27020803003965010447 -0.1194812101679972316 0.13629263981492575897 -0.096199943100278073604 0.26448084101924468348 -0.12009712508377347329 -0.26404975683356013416 -0.32536770296278400005 -0.26293174941022379176 -0.073969177400144400791 -0.18850364209618181155 -0.25361050826021502846 -0.043989238596498107803 -0.14046037102409031361 -0.28213978984192139565 0.12395913744810771462 0.13062278028693424803;-0.61525838856527415022 0.42730198986484108081 -0.1155797466728100964 -0.21727764414330894005 -0.026200790412563297604 0.28581747889170011634 -0.2026824761977085998 -0.039643632620342025841 0.20364746031424180162 0.10698586544610143301 0.11842434745748202374 0.11124010906675942112 0.42238115775227363935 0.1714757453880023097 -0.029991741689363193846 -0.17508820432320326699 -0.38259530533078228709 0.23750886956807842898 0.14285946089138285009 0.14085034429202528128 0.20075556774549158101 0.19643338295590792586 0.32979299557557173461 0.087724369317150316383 0.26479392888613095813 -0.019399880084563881494 -0.24390170531381760721 0.1736260347646137181 0.10630695243494960034 -0.41216691234535657307 -0.20876141250053847909 -0.011537021523682884985 -0.20648371129770015653 -0.11054352478218204547 0.28283999668541454087 0.22087075753056154004 -0.068692824842085928316 -0.28459632163142029038 -0.27517951705334531276 -0.075967703167012054499 -0.038204958642194447593 0.093547963938447858956 -0.22990334548083271593 -0.25783574276579424023 0.17815253552943058346 -0.25368071913510004123 0.20744946720403206752 -0.27119971885939020417 -0.093051737114216950819 0.21897035934407949043 0.3123717416612148412 0.16520159618722971007 -0.23578274605799087738 0.27224568743886806699 0.047533759145381611344 -0.12689139788131256759 -0.050306679029944630088 0.026908978399122436553 -0.13144323547724640067 -0.097923242864340079294 -0.00046495467735518979449 -0.18758011647987019033 -0.2691859008126732955 -0.096357216483800980922;-0.14444097462745061899 0.42668843557887226048 -0.095152927822545099734 -0.16436932381806071413 0.37161392248758323698 0.279287621201013192 -0.11027013854672858273 0.30533718766456718896 -0.16277663001972988988 -0.26634456209181328612 0.09198885948037986704 0.052842146314238752636 -0.021408153580650131353 0.042819982736491235542 0.14965837721728170173 0.090325640926941758169 -0.076972624911649967228 0.23781165158440784047 -0.15308100939033675303 -0.033158359607061121954 -0.27455615080023287877 -0.28722134195445436777 0.24674470776175008724 -0.19378296514976872666 0.10362896988588168878 -0.18923558004722609849 0.017508386859115654399 -0.23258781403731901283 -0.036746193874154141346 0.19708240561213294373 -0.22031848078343896358 -0.076029799011052168201 -0.066316651586477759484 -0.21217260244632746291 -0.14386487566152988959 -0.16125410856244751234 0.20739744837408929934 -0.073073370393603065409 0.12770550510442080228 -0.026809629049100780485 0.089065845934766615932 -0.09925181374158538461 0.16943426733756491998 0.21102100273471754988 -0.041871520397307328276 0.04105420968095468276 0.31301763448948255464 -0.19996975549485038193 -0.29730881060345820677 -0.29070588688599174887 -0.095653222021416517418 0.30891774596969168165 0.18222649599322787717 0.0023139550161424124117 0.36555726660146464768 0.22605320770224926474 -0.28196357832761281825 0.26327671739215952051 -0.012441488605077892851 -0.084151452533301265846 0.28431833829006397663 0.2035452185729891561 -0.24801147121471822654 -0.02265311405185890109;0.024926639756134408993 -0.14829232372601972023 -0.053335056165928554361 0.057343670426384080185 0.26421726977560677785 0.23539232257755821065 -0.31293223292372485123 -0.14057528219046086515 0.16124610613607232024 0.11562364689911142079 -0.28820139887979517868 0.11258752853200809652 -0.17249742981947607801 0.28170855413376283405 -0.28163532288425791039 0.24960873447681669601 -0.14977548313273883474 -0.24417769823645074645 -0.30425337098558108417 -0.04240318260556066865 0.28361877733192536466 -0.21393029052579357052 -0.32750132184873925745 0.014229294235739514685 -0.2139660050570399985 -0.039374466640286300001 -0.2883142721534832642 -0.32863144425940632454 0.21932559407625024095 0.16189161130284565604 -0.064670709920901320311 0.13732996936318556114 -0.11174653540615755998 -0.16744451600870335906 0.19877790191098540507 -0.17096503780936361805 0.12222970859546165856 -0.22805406459619864679 -0.20320625896167512914 -0.025186442297697057835 -0.19329516055679754616 0.038496114516523537163 -0.3212291595482325568 0.037955670166703224522 -0.23404794343106483101 0.099399656677457953746 0.076403609800692121046 -0.15549671612043744484 -0.23235623971167276847 0.081806301548448395744 0.23803407977097731929 -0.0015028303673959174293 0.17451715377439444565 -0.25472998633733118234 -0.29494926997550441339 -0.18308152483012174461 -0.20994478936989782736 0.08009600840930471144 0.020609073831992973103 -0.058115685399160899038 0.0028326485096409797018 -0.14525188171748923405 0.060147805717281781213 -0.19115682271659389935;0.40447892887718173149 -0.55214213909014109305 0.032229502716490429637 0.042564398091237916344 0.075843132423309492229 -0.12708768644095780331 0.077485428038102849291 -0.11316771564475464062 0.068898804258547025059 0.22872873962278073012 0.4601880913490333791 0.018482408822848472169 -0.087049333842346948709 0.38395517534391593317 0.31512692571098965821 -0.073283999504134944569 0.143261069369294336 0.21194660379534308037 0.19243830060244015989 -0.083047349833137995567 0.095282096198372911999 0.22176898298573038959 -0.1776566124408182068 0.061347973487871534926 -0.28748801099414506011 -0.32795792390366912405 -0.30477903734239514266 0.03436024883531821339 -0.17533373269865032418 -0.19316024361346390004 -0.21675829751686750968 -0.065954336855367973191 0.13916391522068272124 0.067039165521717694607 0.11235870139989262428 -0.32779626810316486729 0.21526853970265416582 0.17432469704666261889 0.17525588412116502313 -0.0010781855285909563297 0.0061407130597625914775 -0.21585410404859478595 0.23419784298743517859 0.14768319628621265349 -0.13063795356349447441 -0.10617180676138850137 -0.30576639722749776595 0.17404848727632238337 0.089624634733019126198 0.17565836721940281118 -0.07519090082474509662 -0.25077033109336177574 0.1898340065532084231 0.14041401264113140268 -0.14180154569570663226 -0.45317667571817010774 -0.36078480876034568769 -0.0039083422165172706716 0.064332536688045269258 -0.086709309674546930502 0.098223509432511665884 0.13199045612221108059 -0.083029651419151223601 0.033078785754410727771;-0.11195166439647384615 -0.060515606730107959765 -0.16909194001443769717 -0.033876983398297561001 0.11550364961338317749 0.082008655170815847324 -0.093255537758970954987 0.039686426918516475026 -0.26508545408113504127 -0.037626900817260292009 0.27763528916789698142 -0.19027823602527707547 -0.11696374260009263779 0.18178562164447464866 -0.16867412655984345693 0.20423719378573212957 -0.1699711030193876149 -0.32124999398314058041 -0.091307656274926485285 0.04268755798687914188 0.32614885398277332351 -0.22609559923097238832 -0.31798746456344517686 0.027903025309526575948 -0.21969591655577080935 0.21726843613843890846 0.3065861367463967313 0.099088956061253841145 0.1453245606944388868 0.23902012716886797405 0.31292688013731123631 0.045228572020683692478 0.026231078266537085492 -0.042855336815659693384 -0.099881474282330573455 -0.15499865800220544165 0.194749092408149721 0.094881611605153792777 0.080773922932018765719 0.059008615199421472763 0.11940980371438932039 -0.23286179516539171064 -0.3034166887245144939 -0.11928445787401099898 -0.17289517145552507627 0.13037808088757305014 0.23071224441227877744 -0.13190530525155219621 0.29822382575994271781 -0.28650998507504171764 -0.17171370175554634407 -0.19439043386326884666 -0.28495682409195371987 0.13314740861398480232 -0.055035396644254989951 -0.25881529878523185095 0.11240043650740465242 0.10238304037634531063 0.21329478369113671898 0.091964060285417509322 -0.27703298924438185535 0.12628644950881026676 -0.057139196166489013284 -0.34762356530291704804;0.34696149512616059063 0.19743520347233337042 0.12089587110026005223 -0.2184827299390655897 -0.27400893089206573849 -0.26449283578845561582 0.3518510903773516274 0.027964285471146141382 0.22705063956665066938 0.11180484360676862243 0.31065298160185456089 0.13473380492762726535 0.20071071124332032221 0.26748936315741295155 -0.21118614035694932562 -0.045759454892018928962 -0.13222864508516429805 0.25632907498612078623 0.22660173545036749188 0.046192947011209149755 -0.075399283446955914223 -0.20927904293252491685 0.12323932000396106701 0.25825173153876057608 -0.22640206697105927369 -0.15952134290671290962 0.037365886274577854442 0.024680076110627259534 -0.19838307256143725144 -0.094389600477298871151 -0.0463326098935798944 -0.081425309510870472196 0.15999404670430936171 0.27858206532526164079 0.16948396135397850171 -0.18460602453298333159 -0.080039592614634849643 0.26904944021712240421 -0.27030992078592874783 -0.0077058506611399589514 0.17982078650249069818 -0.2806868262844635642 -0.044832498320121129398 0.28033566101910439849 0.33470338474577915333 -0.067089376796298547112 0.29803869778702535287 0.077060343069311504349 0.24885455318675936409 -0.22589160228396804042 -0.12745069991539284548 -0.098423122803594303987 0.13950449609274737095 0.20313264337601399934 0.20444588783625114448 -0.095733284431676002324 -0.02925785598420793665 0.18976901131163992353 0.23195159927005415401 0.15644071955852079103 0.093338196335785841851 -0.109168239997335631 0.049116444314066400045 -0.033573349514040083663;0.42672123138139711473 0.18227580282276628632 -0.020998855249944547996 -0.24521901018827149676 -0.013297185615036311371 0.20619050105660691186 0.065216214356222518278 -0.13656620613835637745 0.24515668431956341711 0.32446502964445478323 0.10622539836967473392 -0.37084444281643591523 -0.012054924566636669725 -0.12514501523076643208 0.25818019735992042696 -0.032900835934448896536 0.34129343956682389738 0.044768226073427126732 -0.31827978653270921905 -0.32691323886327267045 0.049415464758242960697 0.18740449456660634997 -0.24996631824406356781 -0.32109937918531800127 0.099941340607255513273 0.032204247625037880909 0.35614967891660248567 0.34737040840608535142 -0.062970273566334208915 -0.17286699002672833991 -0.075827374874704450702 -0.15129061198371013264 0.011694524952672721504 -0.14954089632602701743 -0.0080788957682454975995 0.11419138098965346539 -0.19993772016159039318 0.14470974718221626953 0.21868408937851158136 -0.26089534247199713812 0.11057213835588852735 0.18435432701106865827 -0.16682831484916343934 -0.24316559181771923992 0.28859615131348265171 0.21244296972999790474 -0.26601389581521800443 0.11279701641898412512 -0.044849191071298873112 0.053463160640558275716 -0.23119084382459537119 -0.13250901026834693841 -0.29076613462629796736 0.1955395887036619762 0.089518971187576193427 0.098978165328279285595 0.082653862368982172759 -0.095587892399013024702 0.031600463245635271314 -0.17343981167133099008 -0.13933958129999265974 -0.17433274857790945211 -0.2684507571164723716 -0.050672852848722645114;-0.070007607800793611452 -0.081095989526418749138 -0.4832555025389052572 0.33637776499329463675 0.11904850903233908654 -0.23666856333133706736 0.33219863912938174533 0.04993521113666972433 0.5187908732313497584 0.23967836032055775397 0.26267027045986551803 0.1024172412139549293 0.34036195449554706993 0.37126915063272858397 0.42658366807237557694 0.50886329698799781518 0.51791368565627293741 0.053488646802125922042 0.47174601877861294108 0.18421484499538068325 -0.06172013543398475327 0.090103625905595438605 -0.073357339031945301144 -0.37772147568231628778 0.076915147377834253151 0.16225578164014778371 0.15177827953014258466 -0.0089408935536922119758 0.0012275695870463628791 0.093187465094505164687 0.34808953012615456712 0.14754117544215933355 0.0022545250448500553722 -0.0052208541768734521155 -0.19369370944164054915 -0.07442910187235210473 0.072398112725186092309 -0.040388599066302564855 -0.29395510592825785379 0.069019191462132770121 0.045683028587347414284 0.21065644208304085128 0.088223448607521390286 0.010678578686734569586 0.038457565741123446446 0.12533669781168235713 0.30453602557150971641 -0.14444832612560334906 -0.35243107007337037828 0.06541793815261187639 -0.012792957197711625483 0.2772267400332760201 -0.18572818909815605459 0.053540648166049385759 -0.35937413513110738617 -0.32530474163807504562 -0.011488723241636106254 0.038062785040987937024 0.0084928388651518017111 0.12794517721881770722 -0.30212554297544946813 -0.16456682488919208152 0.040136191512918903412 -0.27113098906754701245;0.039609096991103424912 -0.19623671290973027093 -0.21106767130988068892 -0.064787193463624659362 -0.12342285654290995056 0.1643236541740616119 0.19869134550952524676 0.00078630106982556535224 -0.074890536631854284777 -0.14344127218463464946 -0.25392491808678097076 0.17788895096328324885 0.25398607309494386497 -0.024266285885034495629 -0.23715272430856787489 -0.060842672219197459216 0.24038952403690455606 -0.25160358247232955664 -0.26580250460905474608 0.089379826232761985794 0.20848918881071334952 -0.020141506438717614313 -0.28176280471610054557 0.098821722508476705915 -0.11451716305008387276 -0.27991042422202688789 0.13401869908569868928 -0.074646757202293523292 -0.10768303387520168635 -0.18567572708271457005 -0.11061906954845450446 -0.3120860002787066434 -0.17727197501275462899 -0.1282216064568552083 -0.10979302806765220413 0.15233057103562219758 -0.24766065612481322211 -0.27318360772231581324 -0.17062055295939626554 -0.29209475815499724716 0.19552290808214109474 0.23395476147647703558 -0.0047320254633437409258 0.091362319898593127854 -0.12048713311927747305 -0.092101278603162320402 0.24452770026562734018 0.31363426620525924893 -0.17135429847499128453 -0.27153293510787923637 -0.19396191209805338507 -0.21977026722528342217 -0.055446457971734877668 -0.29827170871317060241 0.16695585503243220993 -0.00077980835697957296207 -0.2333365238890759974 0.16473067359521478825 0.12947459358517363071 -0.19348010040614035954 0.2352378604072374868 -0.21613784283535295017 0.20843244973510285933 0.15091227086912534228;0.11172646824369301954 -0.33659085160692242544 0.0030015030835729614687 -0.3534902785500188549 0.1717796002804543587 -0.16236427259944594126 -0.16784317250113309217 0.12608636732203132302 -0.24630949343303257248 -0.16528460186009474864 -0.029662498983149685611 -0.15118257958444958344 0.26329358784125239668 0.099083759106443333731 0.093836997973095415126 0.035984318725208450096 0.21607447434913581996 -0.33188068797714442848 0.16136857606351559524 0.14852689749090236537 -0.32657228303952262616 -0.14778431932054994502 0.1623228639125467998 -0.2590738311969115748 -0.25616868623127531102 -0.10372509441916280548 -0.1844209174716661126 -0.026192133320732436524 0.067207464178012502054 -0.25467264852555665522 0.19424255889769126426 0.040732881488014384408 0.059469272911295743833 0.22575600118140146111 -0.11721016623594247841 0.26092352756064018937 0.18864667022325817825 -0.032381684607688802913 -0.11759837596663577641 -0.29524558785112064996 -0.15784650964316929156 0.12199047409303755141 -0.33496318333230723496 -0.32614786702718651101 -0.016351179303986732028 -0.30458355483980914524 -0.20701438597663010532 0.08126578786229239626 0.034031766276264842352 0.23639756416208057566 -0.30233425453999390742 0.16535056750453089314 -0.32447121325591760099 0.011263595246111446704 -0.18228274347855263904 -0.20794610781517147702 -0.043649752693827224836 -0.25073269475088150182 -0.018162819422378743278 -0.072716112477283365023 0.067336227524300323877 -0.1895705124303835587 -0.16400855232060440603 -0.15073499168035775497;0.31108195115008796527 0.013176758823230303591 -0.021648949258083260289 -0.078632831429839664117 -0.43843065455648633222 -0.36965006427280161505 -0.17960683669101892845 -0.28640842108730923954 -0.00069654498005312687377 0.2620659004605145892 -0.016913403706223451711 0.034900773343077819144 0.32746583535642559415 0.087932221316613254358 -0.12332909586749658815 -0.016169327360734037091 0.38546659989858245154 0.37036641532387482023 0.16707874703721162235 -0.16750602916128370934 -0.0036788453628412449287 -0.22123293524743020688 0.056392933967232668213 -0.020119763572280846553 0.29279817592589491015 -0.28086035394295350009 0.30863030487933573731 -0.28693495169775806719 0.24253710046448012649 -0.057330843726099769975 -0.095676841701778633786 -0.21442314253641994726 -0.11843725670314721177 0.15878528974216729597 -0.30727878018350973655 0.17487156056188304931 0.039480682415504071703 -0.096446099459710513124 -0.21553703103010912745 0.090168818363097549828 -0.21502308828145688668 0.0054274846743029127663 -0.36231699746784090665 0.20672945086253849412 0.19914894355721671215 0.049812054175269702971 -0.09078969795788331687 0.076203804401889591036 0.040518428746546361618 -0.28728556060612503442 -0.157991715636367408 -0.18770042062580272191 0.040593280137423103093 -0.27097531939981950311 0.045282407515962290467 0.090018496088164645652 0.3386137057694421082 0.2816794786792931049 0.27788467540647510123 0.094499666379676161565 -0.23868409168325016578 -0.25363995342275713618 0.093068315029265283322 -0.06706467118670390859;0.26088762217948591182 0.097867440826402113396 0.30440379347664137111 0.28068841511672443234 0.087483824299116885737 0.32829351478311807888 -0.092411085799368339333 -0.16570651979975245527 -0.10851469139619880633 0.20935905549330538489 0.13348228919434795836 -0.12232274835925645295 -0.038986277918250558661 -0.045878292784890570277 -0.24899076846052978218 -0.20839084506407409836 -0.24928610629199807192 -0.24889103117426109035 0.062051595487673062712 0.14779443874663228398 -0.19009945929647617535 -0.24276964178573443021 -0.17488885897044226247 0.032182964217945100871 -0.23874739579425754976 0.011795455570422195418 -0.047364609553364842021 0.21995230043951582988 0.27227365948101500681 0.15754064573227805068 -0.31445607358906096929 0.095739022345634666733 0.11967466971897201822 0.045288429426478302164 -0.1641888044131226132 0.036086026512062670257 0.17771261975827720714 0.04068384071010575781 0.10215898026449510283 -0.34914143751761661516 -0.31141673716453793785 -0.2279446510204560794 -0.084837349651405172257 0.2951258869641678606 -0.25384495801051731867 0.25006979379395105623 -0.25473944767179268478 -0.084137444346752993107 -0.11794863381763603938 -0.32144319707577556633 -0.17653591605885657345 0.24870818268123692785 -0.02242437296273840433 0.029856235745984005536 0.042879036537915568572 0.020557423922276288342 -0.080337610740513640262 0.15212540863393558821 0.29007700344139297766 -0.20420195215016545554 0.17196464342142947501 0.029343640152243839758 -0.23842579560562660035 0.31164164206473443652;-0.42088657464355549997 -0.12600701490764221191 0.33065964998038732681 0.061314472103582408347 -0.48447013445314573987 -0.0034009260341784381537 -0.0069705306179638753389 -0.36238349870411007414 -0.28243478254978537922 -0.19646897728550641316 -0.27868532468539436442 0.39846435345857783572 0.14095472783051654631 -0.23783523659439292919 -0.10041534993529017961 0.29606815707332523324 0.20882089046148052947 0.11244676872070863416 0.051811549656307305523 0.051061936585191598781 0.11356591775748080264 -0.057263699431822252806 0.37504428401787964775 -0.078742011420243951392 0.22350322448131246245 -0.031431453546010866551 -0.35864648797517317824 -0.23863522642729606549 0.12616598295630038207 -0.17170115462733245848 0.10990300620699704204 -0.17075270684862592363 0.26036027025706021121 -0.068436551800921174848 -0.26511443862663475191 -0.0012080804829016980606 0.025341788461846224967 0.29882112088472545519 -0.24589214937618103507 0.2288341274168602113 0.20633498438367986472 -0.051428820919504701636 0.039131687420667575494 0.11862133277914928275 0.062079769503969720046 0.25154285590472230671 0.2421715443098619025 -0.28113439026477543559 -0.21474258063991141787 0.047984119795351436177 0.03155822478548327148 0.0062773789364952668757 -0.046024096069452381796 0.10607712052406728653 0.32908345637783187332 0.13651625279162465931 0.23744931506797151144 0.22080050680877555402 -0.0014170838407366525766 0.16063461498578965325 -0.096667626710521148414 0.044953591845313882469 0.19031258647542667606 0.01595294888807576375;0.15527370788801769796 0.25147526259676344917 0.19286375066991831573 -0.0053968224689416527742 0.10632253370171766693 -0.23537603039703211549 0.28628283541587634664 0.10097432645727276446 -0.2099908398519572672 0.073176893576280641063 0.05839921635507344666 -0.29210854854981060935 -0.26070132192328998588 -0.0094323356182361151046 0.18639492684953554158 0.22966135996535200214 0.20040292523470082386 -0.093483168030066204901 -0.16964199417387973434 0.14462952532646997095 0.14173173917952613943 0.25877118652513020347 -0.24586918110456429387 -0.083804180840657147011 -0.18942028917170342095 -0.13713437914887094404 -0.2982469720750692832 -0.21302641378884101808 0.15898180498992461884 -0.13758852353685979697 -0.047549522487744758092 0.22197574229291627823 0.1267692893766739215 0.19209680597039932581 0.11037797267720898808 -0.16098939578518267624 -0.20260979791459726718 0.29661971863281966222 0.21979902346093793675 0.28009420180778082932 -0.01243482063663298165 -0.27592378431150377249 0.30228046779023426405 -0.0049725723394627215773 -0.03665639909378037159 -0.0424420082230110296 -0.20504550740181723412 -0.18414755642373500932 0.04434374032338882915 0.21985835808123999069 -0.011366920687358618783 0.31863674550500747928 -0.27934765053926297051 0.14351401367660449049 0.27321498958166651194 0.23397745895880098232 -0.2510272414615495884 0.074105460151057470086 0.13823844521233238924 -0.26137197772411496777 -0.11070173477237227333 -0.033730781970788013824 0.21156785146677445364 -0.056681288366719768945;0.067304338081851586284 -0.20857081579736796995 -0.22939689312014269196 0.023875820497222904198 0.04816471259564059082 0.32902140612452140944 0.13613916328820069301 0.16183348350288739859 -0.21499626323575449227 -0.26863558089079658808 0.34083474022046622576 -0.18374369970602025259 -0.1890745466264543706 -0.0065137844395831935237 -0.21806450258460688407 -0.026843762899529510085 -0.28207722604909124531 0.031290186399550834473 0.10749880483994114777 0.18242477257605002605 -0.26770695050408982452 -0.16267227122183466892 -0.33233125786216133335 0.26345334216815025075 0.27257309660686024344 0.24850646653526434204 -0.028944432073997189425 0.0084284885491282164616 0.18259568361187988872 0.14861082429583755138 -0.21388564896935599591 -0.064771301401370051654 0.065299893669190894885 0.077066359501054920722 0.23478225162552626704 -0.2202023757937733861 -0.25221281232987724508 0.29575180823553681719 0.11863315048173056487 0.17757495063313125105 -0.27768806878423962781 -0.15580155712701854176 -0.16851442566493105013 0.063568862825671049177 -0.19948983867969477535 0.25454540785006929404 0.0032159963177324376281 -0.25299357017582191354 0.24739909688761813067 -0.03219568769823705906 0.26248543021428843991 -0.28637175289847688342 0.070829809930771203685 0.10802907041533542365 -0.29143107071665447227 -0.044564335621721871961 -0.23827253887292215717 0.060177284676789059847 -0.053626223059963028239 -0.32389729202890321647 0.20052886678279113752 -0.021100670171269746839 0.12437615420389823429 -0.17712072383138083298;0.06947078061814990213 -0.24066599085388321044 0.15049623112670218461 -0.2877046548003898141 -0.15406774241762147271 -0.22234890376608609786 0.13466435613871424737 -0.28979633020263717569 -0.21859742252988853539 0.27527470444529511528 0.065354691800671937951 0.022184034368665232068 0.33177971577070164422 0.017331706254666401357 0.27667126484399584552 -0.15054449563092300868 -0.18658141034074052222 0.23200253338877255271 0.053736087650185719589 0.19721954437734684484 -0.092191359420985177775 -0.31420692066261407538 0.10631581908483300758 -0.24909038750418030506 0.068261782524019154472 0.12226241773459013695 0.017807057470510735675 -0.22149403862282759925 0.089821413388486398555 -0.17844707154089056722 0.20552337873503093157 0.12884447134294449433 -0.2505939551692984435 -0.1178304301399478865 -0.092015629476417393207 0.13103097055845044916 0.18628616870022099428 -0.0025179934314362387854 -0.16407229823705174465 -0.10420654038919735518 0.14982944244573209724 0.18537682356551479779 0.1092200608281077151 -0.1268468818127161668 -0.32886107381630208524 0.025589017829902235834 -0.065758714172280269272 0.14478712409610888789 0.08249246522371032897 0.22607303286011742882 -0.068448590331767866779 0.060457477039638142513 -0.094043414345002351862 0.21715090612360721245 0.17573837609906747814 -0.26595138715028465715 0.12906812830392588864 -0.10351874963738053048 -0.33814256154399358056 0.34406739160099131247 0.27447856667795811347 0.29557817734179975266 0.28743038081166094599 0.30186867694803565243;-0.19189558731368269728 0.07514985881294793113 0.10241953123104938217 0.28780792499696367104 0.17368868706508186484 0.065853023337794594494 0.21716720535948205728 -0.11740633906361006011 0.03674023384170079648 -0.23846461692184112158 0.23296055624892197944 -0.0811810799810983863 0.1129631100472072297 0.0024156881887956744431 0.15797166995042602466 0.2601171500884104093 0.26153959871874149501 0.18001061595287429218 0.2322058791508329334 -0.25375615374764076693 0.25885894450798974109 0.0044068894684181634039 0.28724585405960195716 0.24241607396155220866 -0.16862634373231574769 0.10011732313731983024 -0.29951279771955091613 -0.11950856599707036787 0.060491716784702644072 0.274654159992555158 -0.017979430120234243806 -0.13310426574755443441 0.21035128378090239831 -0.27024245357980603011 -0.14806627724131130042 0.061780537128151624682 -0.21211204659396140637 0.13626449079110763973 0.15525732998668656526 0.19208670103124406148 0.29559939885384539648 -0.13348087449879433852 0.10256298605882586961 -0.21548828004290274118 0.24328464704055027812 0.26677694577729932357 0.082361624125871321644 -0.19957673944401241317 -0.22527672809696810963 0.19566993752882338997 0.068351128802245836313 -0.28257875351184158497 0.29571251877738558012 -0.075632530855357676947 0.22337715065422455996 0.10992243116707052508 -0.12340734617888425573 0.23633419528061347381 0.018975538189984545584 0.11902281359508473657 -0.13916287681433656132 -0.18497495976201860923 -0.029435619266629693691 -0.21726272265397658656;-0.15878792348812731383 -0.21783918394605822355 0.077593849210682894202 -0.22509980553325434349 -0.21663266464441360837 0.049652838021982774463 0.039497483707109509732 -0.10526359057316676815 0.14983619775743234337 -0.22483336411048729375 0.27781839121319779062 -0.17546718542068118207 -0.13425775566531200633 -0.046077532856034233988 0.24401803497791615949 -0.18793192940388994683 -0.020755404731235615329 0.14670216801776414517 -0.2302891279866877694 0.0069642539498189536332 -0.039285209416364319512 -0.12614268926466759568 -0.23800579026924542636 0.22206871767666191975 -0.22190185139639079237 0.29785607343018249971 -0.12552812818040304244 0.00058326212235506095204 0.11704190234781437774 -0.24511150306365300788 -0.31027647988864237583 -0.067554447461902672467 -0.0052818822320179533575 0.16060623061960746516 0.24104185408614839381 0.0098987585377324702196 -0.27978898209919578211 -0.22548660349751023513 0.21623276600293647731 0.0435967726408813816 -0.038301266797641855821 -0.31743861629657127432 -0.31338326202671878962 -0.13257945291066786098 -0.028113223644770111986 -0.31810121986735795385 0.032027331965391030166 -0.18911843891616636482 -0.17517883920003479714 -0.20574091166707006439 -0.27060656836238222711 -0.13135638878553443365 0.2037212693100444727 0.12135692751536894529 0.28940755410926094493 0.20609528614676961289 -0.046895931003773101697 -0.14871733878874757173 -0.17991421206202279359 0.28932950014729263977 0.22891672345348212936 0.21830204922587714833 0.13440874062042321158 -0.060929927452203762328;0.1436460492303357761 -0.12852637015951362542 0.220478884469861941 -0.22812394791516094061 -0.22506563448929378657 0.30786540790546440549 -0.13506144945866793705 -0.18508763391720137181 0.16288289862739710467 0.14215800125258604147 0.29456724053690985787 -0.078646749824432274356 -0.054023580248300451245 0.10391993432476467896 -0.2887838359848007852 0.11168868513781375629 -0.008934087984419507994 0.058692777364206326352 0.23663293847021954486 0.16248105984492897114 -0.14730674470559712574 0.19393352360524010458 -0.076393441213304005832 -0.22765128732460976346 0.15914372482923264118 0.26267471654902135869 -0.067975849015637190842 0.23748029235760978461 -0.097320342564545830877 0.29085974482499615812 0.29408966373207129363 -0.11908796968853152531 -0.12954143121501887626 0.33166991886889041208 0.16528095127406255971 0.22381192710233413501 0.072590776786200739146 -0.18876489009164532096 -0.13318619129104566912 0.2475898029914126719 -0.21058460905841372424 -0.30570265062899515396 0.13015063865868589654 0.10462051333564424682 0.26883403361673147147 -0.026373642571421190839 -0.21190877951412198654 -0.24276604271055166051 -0.14112937275700129791 -0.22755068610763862225 -0.28476375879935095226 -0.012780621872672783684 -0.054694072842078271524 -0.32938497370286495824 -0.1077238368146303249 -0.10391816479187440669 0.013810064102955042428 -0.22850100947627377534 -0.1693427104126088989 0.25735170511568339347 -0.25099460655928984565 -0.10396160216549825417 0.12044432719260238229 0.03552574536563667118;-0.462255783738763526 0.19324243325349232947 0.18278622985954248725 -0.24925476122865300455 0.038855998913441616716 0.15957500584426767554 -0.20643946298617998902 -0.033156949829487546155 -0.52534322987134385308 -0.44564034657723072819 -0.31519340463051959134 0.055942316758947348287 -0.19375037666624905786 -0.0043377609318767853391 -0.32204688924727353783 -0.17809493749693011688 -0.51121341100008843572 -0.21192537706164815692 0.1680622521649183243 -0.025089093944292227556 -0.1617782195271018908 -0.31073905004316471068 -0.10591591470090072624 -0.21370480850478132395 -0.26529592964652753961 0.26071146974240266836 0.083736324074702675468 0.19285326288033743936 -0.010997261617381338256 0.27611927663626395502 -0.1237624138007230451 0.017908054801728408995 -0.19266133838766349995 0.061590710856473017409 -0.12225363155963095418 -0.14599340876773614362 -0.027179926514344764782 -0.17622862664917357534 0.035905087838599691885 0.25169891716923403768 -0.3009314936628471604 0.15212419863874171444 -0.021409821360876157836 -0.029447392576564181133 -0.064582188833158554742 0.0364879478239893279 -0.044518169441566439459 0.16973985422233725529 -0.19975840139517886396 -0.029058781934963400645 -0.23084818151339595027 -0.17268507632499910387 0.1035693372387314487 0.32787449486483077887 -0.15841344003416238384 -0.21825233078299677292 0.24830546704073791497 -0.12855474101883554439 0.27612230713857421893 0.31621582062941927527 0.099360471361087471243 0.078687141134232141404 -0.074368899913807365309 -0.29582838402879413353;-0.016031826489931115531 -0.019916484255759599187 0.22918362788608812042 0.2199594626571501621 0.25143316655410447025 -0.054390242662195512069 0.028855991335343406795 0.052022364301753054594 -0.20872729447369534062 0.15394900642514966482 -0.1518712085043772142 0.19655799075966606804 0.016253898277860907157 0.14047226669410647903 -0.020276117513112597301 0.25600249095239946406 0.054774003339314085437 0.2767186854439750987 -0.043387092317870343261 -0.26292831267280497576 -0.12177301073271649956 -0.13142822580055305015 -0.22493570552722300104 0.1726540995790781241 0.062586924655365111514 0.15886783730826320449 -0.074348451495784617649 -0.25284821738601265251 0.2975870634051313024 -0.27515374282505467018 0.25597916274928900204 -0.058062951979819504844 0.28254321031345402959 -0.166463382370157148 -0.073184106649734806394 0.017403605439718108222 -0.00085952958061551361108 0.28351519830656879417 -0.28653822013248031464 -0.1309286129927838549 -0.12909535156058996042 -0.13296601255284501431 -0.24424931822765316713 0.25676197092550073764 0.059948763465522289517 0.20366689407489377284 0.019393153468776836573 -0.15636193785152410762 0.27343469253285407339 0.28780748618743767775 -0.20711310833090407213 0.082879740394198653242 0.31149942539450009571 0.15522652356223662351 -0.1668869055105483834 -0.27440920789258932411 -0.13803801342545618525 0.035565938790368560596 0.17359405353252396753 -0.24046462612152932903 0.25255408711243421127 0.0058206217528728419752 0.2737330287895136105 0.073867181796810260641;0.55098925838148382628 -0.15026285035011338609 -0.47542240369018257118 -0.12227557973520937484 -0.19535380060763193888 -0.07088186373463675749 -0.19326160230005445806 0.070151874179308751356 -0.12428809446326907762 -0.14734568725177041304 0.36817309852846252793 0.029709312255014636017 -0.31232506196973014445 0.036880691895186293316 -0.03880348571469600244 -0.27365728535374184149 0.082376482300294887051 0.22654410300854657678 -0.14471400792742955543 -0.020660531649689613948 0.20256984798910851464 0.15178593168073478692 -0.14658105449721758884 -0.22426611790951231362 0.085421569858085591442 -0.17086532747443228253 -0.10778315790285818154 -0.12119661831745309755 0.25219559561878962528 -0.14501683347160787552 0.3228591086212288519 -0.16145661505954519988 0.21434815296241022109 0.208311747956453297 0.15644394096607006084 -0.22299824131183554332 0.30014381191020261808 -0.24688908079257421146 0.17021453817647538842 0.1769962585077064221 -0.096561860509906824457 -0.33862481483436068785 -0.075684821570231000654 0.16380815972440074257 -0.17081444855410921058 0.3274261554433098298 0.0036884920381991771407 -0.082622978860572487969 0.27903236083870941453 0.12390727903056755754 0.0018229563861831444161 -0.050258259414252673403 0.18388314406598821327 -0.48773933485367837459 -0.21398993218624379198 -0.2300456581803372591 0.038729871496932473385 -0.16999948515347640399 -0.10597825914495731525 0.23626332304689634523 -0.22281677606056951579 -0.22875018734802435305 0.22194947428824218782 -0.19791082757305558659;0.0024701268604674295193 -0.10318315312976419906 0.030152522220575968259 0.065393212918520265964 0.085421198958334026985 -0.34644067697797936711 -0.11662788859026887445 0.28683128677902447468 -0.0737532370708087609 0.0083045445025952107504 -0.33353699652002305465 -0.14959344710486618957 -0.091664775047143931541 -0.31204846505617195307 -0.22015032836976305974 -0.072468416127818818806 -0.11970811535715761287 -0.3233082211090634317 -0.043102203370286265582 -0.11434765939421737135 -0.046286441489990309828 -0.21177413630043656623 -0.15950857471503371299 0.049415054858410585592 -0.19316208008958637987 -0.17177498572348298689 0.033234355024609342488 -0.16493545349436183889 0.20025445306213573993 0.039680854528698482342 -0.33647608603754336487 -0.24864953967983105532 0.21097774812325525984 0.34586354828705673237 0.23366209537523230377 -0.13157705504582362099 -0.24059573109382861866 0.1320727300375246771 0.33010831187329320313 0.13202357664327535325 -0.34537287836114505257 -0.11044433347726792527 -0.10939815862884300079 0.077233950355347746886 0.20591149675989764423 0.24250935454890729104 0.070543923093460109142 0.16735167655308555434 0.022548706675652639697 -0.33555505499020393811 -0.066552761433845253336 0.19087631162152324249 0.014906567543245086843 -0.015227158037608608254 0.30180373731686527261 0.32940503086077616013 0.16605125270718518182 0.029907440524084810685 -0.27863158913306224074 0.010491312734172694027 0.28898256096925983849 -0.015353240350853124968 -0.1925133321679354248 0.069209039101418831641;-0.17083573523009804029 0.066476951232836825612 -0.11078276586166624362 -0.11636763382041093173 0.20120375708738638676 0.15071850229860939141 0.20214097884596227139 -0.25796177933150638006 -0.09911146500041251306 -0.20192374256993578241 -0.19715513473838947034 -0.076041120197746045473 0.26517435250963800053 0.20440456481538607503 0.24335102786205789482 -0.02846307238604302986 -0.27220732285813814544 -0.25428770123833271954 -0.018708388445077439588 -0.28117701611671541695 0.26616961828221563646 0.31619480891776491349 0.22991164373058886605 -0.0056033019787296847389 0.12171479178912102126 -0.070649530376861280345 0.26337077938267611232 0.25254551399703017989 0.068567454411590761376 0.16519662979586532958 0.24047058746133995188 0.14313107757317519719 -0.20146534475095231875 -0.087013000123367226224 0.11276261035734026772 0.10747150415392041356 0.19248569899674333739 -0.16964178598887263982 0.29979492222567544202 -0.11612322816036114992 -0.25051880755405020462 0.092761437654431108668 0.27858603650255198136 -0.046418946443823549952 -0.19968090268032528956 0.3127434073214896415 -0.22800446766529150477 0.14632786280534529344 -0.00075861726055090068343 0.30942061384042879313 0.18229026010747453879 -0.19552967260428280594 0.26337770368806701082 0.26625223690720667413 -0.020066999162542002721 -0.040788561445596352439 -0.14786547803047689342 -0.10452482576107825774 0.31719417839988883756 0.20809574804379507573 0.081714284197892783634 0.10307392526392192278 0.059269469668692328912 0.0093482580803840205352;-0.62565221559430139742 -0.17858297119544641607 0.20443364225488441788 0.35893165847374797206 0.39127195086004978863 -0.040878745790605248989 0.033464842146128347122 0.13971874139853249219 0.044052700884443705964 -0.16758230225907577715 0.25146608377721457739 -0.27628377035343582024 -0.26146486513649908057 -0.10466011003599109963 -0.31188495105007746355 -0.34193656436763059103 0.098946670721066928844 0.19333059390876719541 -0.2495663723096023523 0.15024753171317178913 -0.044773937851433076585 0.15485545241438589126 0.22156344657338744586 0.20469600943563159845 -0.04516020783356824303 0.25821727975987174286 -0.16053931900945614397 -0.16700133975724054669 0.2927087519495507606 0.097771447263165639496 0.25709480406583606893 -0.12500023681426067346 -0.083329515527368419603 0.19490249391774835952 -0.080842633840984209903 0.31169088309213022203 0.1511604770803369191 0.25281245557127579593 0.12277084502582774617 0.12383940926205712352 -0.25018142273940768838 -0.052846849880222951379 -0.12373104477765015097 -0.010903665276976616874 -0.26213563201521972168 0.1172462094246889408 -0.1590164295687097884 -0.17864026623801279592 -0.32007161441636600152 0.081336707149702897057 0.085619093251806790978 -0.076271049580427838221 0.19157597063896372735 -0.13753565280597065956 -0.079826732159229793484 -0.24829173388710354398 -0.018365317661337528937 0.30755514121548716 0.10662498488824492804 0.17851556336753116039 -0.29135566139755614268 -0.080484421253530308293 -0.0047523112768430341227 0.18521014025410073578;-0.3835068610175659809 0.22466232458997148491 -0.13026119816400821838 0.021551823965397370886 -0.20553341297926711051 -0.15200744936605287139 -0.24880995648071077553 0.15258843796626542222 0.23673199139272849134 -0.028239793245040497455 -0.26487968018865476472 0.26497471385479143269 -0.057687644229697271347 -0.12543741631807672765 0.10063947278226359483 0.28942670551405119683 0.25402246733231670373 0.026209057839865563394 0.28518760134116888372 0.041455118882472094533 -0.046945758399112760828 -0.12261831960918342932 0.14987384875619505498 0.23123054055885064462 -0.014137163146428306446 0.14247738274797855373 -0.0097064522691912586555 -0.10618222900003691789 -0.3549138715553982748 -0.00022005174911794229053 -0.29336962737761462794 0.24161374853331568646 -0.10766819608643472816 0.19136315433031853006 -0.16270802832364350543 0.21768516148630429052 0.31317299616893873315 -0.09726891971271277304 -0.040171301136780995789 0.26682687731388765595 0.16813113101220084067 0.16934689234146960146 0.26087606397393325874 -0.14658463277129687996 0.031984296530238785772 -0.24080398743749520385 -0.09755462733670025588 -0.089193260675304725238 -0.095601308288546030245 0.23852708680225723215 -0.18508412410025085193 -0.21065803286107004366 0.40590206232107722828 0.42321791994201141129 0.06480537630710633823 -0.07574778689519411079 0.31459174371621867472 -0.10342164327597620777 -0.031469793834208080463 0.29499430651512392743 -0.32021702167339827216 -0.17155572168637595043 0.33316682098279243318 0.049437656858297943097;0.5123204466989057515 -0.23886186108130660899 -0.44898596046155092587 -0.19366847754114063784 -0.31994736645401256059 0.19363017972046467352 -0.065863412516934463636 0.10409827633578823403 -0.11594430915068880406 -0.25848778586178700056 0.3851119848499999776 -0.35825039833357341656 -0.40893320129835314392 -0.11789624306674156839 -0.1844454288211435089 0.2488654559284542156 0.013654990720326627002 0.13059734704570316599 -0.052425356892933101804 0.13883199408778196249 0.060054783749591021669 0.068255501600006165952 -0.057922013052306563219 -0.002149137237704597074 0.041525755400449018695 -0.075203587071605182413 0.28439095679720788334 -0.03320891839148394642 0.12054028592126064812 0.013374450512463435803 0.34298344330276048231 -0.16486591530663219363 -0.13277376313420066745 0.17683250458419028095 0.010956267362220002692 0.20674750666435262603 0.084852692503087745468 0.1849629923772094231 -0.27573952521588240838 -0.15117188478634521753 -0.34935879375592043816 -0.0090508879898789154628 0.20025396519121663186 0.34180233555699385262 0.36300108370904288213 -0.2618008320739598771 -0.13697002548738954064 0.12029112871263124285 -0.02775686611103715673 -0.09156189829139958769 0.24574119611120667783 -0.053071186420543800533 -0.12709764714747995296 -0.37933945461780982367 -0.3362784846586124865 -0.24037265744531738365 0.27796263490205574964 -0.030770470509285781369 -0.24066298344364817074 0.16171196150775751788 -0.23771211969932762309 0.076231007372378575826 -0.31742755458426569204 -0.15727237325397788736;-0.18737199478964189359 0.24038653467915721551 -0.15062710500986289941 0.2972594996259920741 0.078467492818538236987 0.047333178511907991748 0.22924776166589633242 0.35066597515893849213 0.083239711009084602078 -0.0070790037518229011887 0.14653980108755432221 0.14278498105730128009 0.24079897474776884581 -0.048882224818761817187 -0.25864632371072654449 -0.17032391628432552722 -0.028662410015791329326 0.07807124717780233869 0.12833689446971538461 -0.066969830894321055736 -0.026744822035692554507 -0.0023342307434428243018 -0.17504220701234601831 0.27308382965168093159 0.20628252429078447472 -0.2503512522878590385 -0.12543681675485679472 -0.03995601267856471045 -0.15173720384727101829 0.068860192100425765549 -0.04808118162488755204 0.13696264549276893074 0.36315761483214298311 0.13527819205714516904 0.10884789220296378631 -0.0039171672696582480327 -0.19936520506647650852 0.23493296733529769882 -0.085009703451662116391 -0.31389533724931739656 0.26658770780448154403 0.30549269152311969711 0.29922293347614381531 -0.2840388348822934228 -0.041214065566889626635 0.32853361358801758119 -0.24239993084165337156 0.0093469318558058334806 -0.079974602131443028874 